solver_type L2R_L2LOSS_SVC
nr_class 2
label 1 0
nr_feature 5000
bias -1
w
0.619461740801234 
-0.4180908460579207 
0.47120181431752 
-0.3738790060557306 
-1.825188686774526 
-1.151895375820703 
-0.6259509312843357 
5.516041597378643 
-0.527676116269632 
-0.5718368986339751 
-1.0783962100883 
-0.3361546363340844 
-0.07963113107980974 
-0.01256922778627153 
-0.9810292596768704 
-1.115206286942396 
-0.1539016640742125 
0.06951544437547762 
5.654282972231328 
-1.343610207633068 
1.129021576127389 
0.5768361348892506 
-0.7267345730446709 
-3.954429023051733 
0.03074663173919286 
-1.468278400721283 
-0.04476456374899245 
-0.1544545993774537 
-4.216563360224656 
-1.16172929172573 
-0.09645513322709699 
-0.9524127465739591 
-0.1515110166600416 
-0.132048725731918 
0.171421793976746 
0.9762411550977597 
0.003544109534164504 
0.5583312431832388 
-0.7314865114231668 
-0.6380447739384771 
0.312992474001701 
-0.1049861014025296 
-0.1710663158541227 
0.4570118004004207 
-0.4927291533244839 
0.8578297037252491 
0.3441616646244559 
-0.6755903717438758 
-1.334476655814993 
0.9162429543913424 
-0.9228459473103875 
6.530961766229793 
0.4822722075532589 
0.2363970234921528 
0.5446636202996959 
-0.3290471472205357 
-1.468912167031359 
-1.170694986076944 
-0.7597476982236676 
-0.3221407714003931 
1.064941100163544 
0.6831200929190377 
-0.2120395395113337 
-0.2419197995261734 
-0.8610845115619205 
-0.7610588121626123 
-0.3137961775560306 
3.409279246901051 
-2.064114949298736 
-0.05130218480881819 
0.006492781881538904 
0.09599272934232603 
0.2512699034401624 
0.1301976408616831 
-1.663622990151996 
-0.2458044030111255 
-0.2803820640656284 
-0.4868347236483063 
-0.1494732368275264 
-1.494074800352253 
-0.03174856859194809 
-0.5066002480608094 
-0.5681428459028337 
3.353041381619573 
-0.7828130668941855 
-0.721770054426028 
-0.1753484423265899 
-0.2255495632617807 
-0.1960306894265451 
0.09050256717573262 
0.9981049152925972 
-1.949957553771587 
-0.06272501586008988 
-0.3997715163069311 
0.3513190714691945 
-1.592758849132811 
-0.5638839028930369 
0.1813739082473361 
-1.216994024702472 
-0.1584390933298701 
-0.5562821726162798 
0.01977513857638191 
-1.044710175132551 
-1.133429578083347 
0.00850718035200399 
0.272417152786974 
-1.429957077754958 
-0.3214753916461389 
-0.2616084081211155 
0.06790614884677462 
-0.1154307994946494 
-1.355650667410758 
-0.3509122286247365 
-0.4319763721272457 
-0.1202548718325075 
-0.5122689376556381 
-0.1164363650015144 
0.4553652037675768 
0.275631942641012 
-0.4874213866098576 
-0.2882841855836222 
-0.03317177307823544 
0.1726675176728056 
-0.3284128495649887 
0.06768885756013746 
-0.9627304308978903 
-1.136441138377516 
0.1731369954618761 
-1.412780638338509 
-0.1847299343141135 
0.251581422305559 
-2.943816550944645 
-0.7892819242550755 
-0.3986447214771921 
-0.6740615999771421 
-0.1312607985920424 
1.236037422360322 
1.998287765469328 
-0.2758867292656852 
-0.3452101645101107 
0.600856208563634 
-1.590306932489053 
-1.783236933972399 
-0.9426510127270227 
-0.2400760378910559 
0.05390741866855653 
-0.2196939457039063 
-0.09909023215544696 
-0.2660427064452124 
-0.8503618240630939 
-0.8151727145871822 
-0.7383219347723825 
-0.3364586107445064 
1.19455791376228 
-0.990859419768403 
-0.8513172227823044 
-0.4411007359019097 
1.826043072963761 
-0.2099451176787905 
0.8501224219206002 
-0.2074685269687004 
-0.1280394075033706 
-0.7147092668353361 
-0.7736707332175083 
-1.164960030047288 
0.572642254258182 
-0.2815744932173126 
-0.5197368683764771 
-0.4623117567645555 
-0.1791598636701667 
2.025701444560317 
-0.3003168505296191 
0.3244587635090855 
0.6628420977597753 
-0.9785642338401177 
-0.4185858915158414 
0.667775643471254 
0.07411274378220202 
0.8712067641461563 
-0.8501415417319708 
-0.3781802393797414 
1.443808105306171 
0.1797115786942201 
-0.4718118925306626 
-0.7789744962231582 
-0.3462101335290148 
-0.5051934999613539 
-0.2273747377631133 
-4.220997102819162 
0.08245263765376071 
-0.1392616644500944 
2.671760583738393 
-0.005785388526597629 
-0.2711425233844781 
-2.173962197243064 
-0.5634031497478995 
0.01684372001337766 
0.4009539760393034 
-0.2667423117290433 
-0.009288248027167573 
-0.3065381476742426 
-1.378491774271627 
-2.244837810236851 
-0.2725682587647379 
-0.08025578706642386 
-0.2117960305487011 
-0.3141905113103883 
-0.5391466279901508 
-1.664123368118785 
-1.170905328125322 
-0.3581222730862212 
2.575546359572128 
0.431288942808985 
-0.8272228829856547 
-0.2130489781543748 
-0.2207063956769963 
1.676930945797348 
-0.3283772196183747 
0.7970902625566356 
-0.1210523502710805 
-1.179765200299124 
-0.1726059002915049 
0.04906679399188588 
0.4784022668190577 
0.1661391235515716 
0.3931535709065768 
0.6022393700553215 
-0.5143034715453351 
-0.2766182607256956 
-1.034365639455143 
-0.2093167728154093 
-0.06796245181867841 
-0.3085441931136688 
1.645046439691663 
-1.056649249822953 
-2.035616318246605 
-0.2299595019978095 
0.8092964947225558 
0.5993547530387539 
-0.3007661384250522 
-0.5226842428998684 
-0.02362663081856751 
-0.7156332801975569 
-0.6477895316423524 
-0.6058841152301904 
0.1515210047056844 
-0.825092788047422 
-0.303890214400248 
-0.1078232036601491 
-0.4455702344600792 
0.5921040689377426 
-0.4694076826144418 
-1.415472787859468 
-0.09255325148522993 
0.0804969062071558 
0.6873837123717641 
-0.2315111237883075 
-0.3444160956231108 
-1.302085164443688 
-0.5142182251260136 
0.1874251706221823 
-0.09617032536617007 
-0.8225218764438312 
-0.1831325624060109 
-0.08902496792080089 
-0.4426117471993209 
0.5355482815062449 
0.1752180959605467 
0.1669948448607903 
-0.7989885215606862 
-0.9182035498316157 
0.01855449098588023 
-0.5208483412521405 
-0.1981106608683217 
-0.4939942440830218 
-0.5460749820423425 
0.5056693667412671 
-0.01899898519801922 
-0.01158427912796299 
0.6279457363839513 
-0.3327229103127676 
-0.2637226538980806 
-1.052542911949694 
-0.7360196898140601 
-1.218715450000891 
0.1350375126887179 
-0.4129197152213128 
0.4189676337632456 
-0.03307730283447663 
0.1723575091058932 
0.292131993379618 
-0.9727773300987519 
1.0795532118865 
-0.01414531113769446 
1.449448989518995 
0.07494280057061264 
-0.2163602552076223 
0.3121990150415718 
3.21733645313663 
-0.3157892780282204 
1.531434826999801 
-0.06712796594220935 
-1.124207183670032 
1.93121899907199 
0.6318285682115259 
-0.1080161296063185 
-0.3741449387124813 
-0.3938170149324269 
-0.6611333529220231 
-1.359554446574138 
-0.2769169560613205 
-0.007400692515756417 
2.018625632820434 
-0.6491037565577368 
-0.5436519320024162 
2.511685703111344 
-0.1670955736716114 
-0.7901205117122349 
0.005047177169701589 
-0.3635866179395011 
0.2098570270024807 
-0.7498114341223848 
-0.1866913826780277 
0.683958858763666 
0.05962886387197638 
-0.3480440156344417 
-0.01228135271420285 
1.917202179571983 
0.2196592536645495 
0.9608530268257451 
0.2039099708714496 
-0.156998472933064 
0.3622651495835129 
-0.4090407461190706 
-0.1474054038412199 
-0.6017971025518443 
-0.1112777867699342 
0.8083038533553 
-1.113497295783438 
-0.1942343430367039 
-2.516486398946531 
-1.608496886703847 
-0.0002896886996039266 
-0.9125160735724657 
-0.3858303747113604 
-0.1194475850618174 
-1.390253805789925 
-1.207120444835313 
0.1185773985457035 
-0.8264070723274501 
-0.5647297289866113 
1.044085424365938 
-0.01202294224200424 
-0.407483511090589 
-0.9133809698245472 
-0.4551325146252041 
-0.6037433426924924 
-0.05320305463209248 
-0.5706767394198693 
0.1819135660617837 
-0.4846924836783807 
-1.332991998251238 
0.5328705157390387 
2.117034288200739 
1.149653322180173 
-0.04605458974885114 
-0.1700170250127281 
-0.8172978919370436 
0.6813679030479182 
-0.385463344335815 
-0.8095301588449973 
0.1639628377321612 
0.03859611517377681 
-0.926592295258384 
-1.412184283860539 
-0.1447405161046505 
0.07377424319554911 
0.4513228619769568 
0.6307610011516384 
1.131768209879558 
-0.2171196239617734 
0.1694407926337201 
-0.3307949787007566 
-0.4592927130346 
-0.06003968909326037 
0.08665838382070563 
-0.2333341206710169 
1.397648163475416 
-0.4909500142491946 
-0.3453207076480811 
-0.2109522292453053 
-0.05586814854722556 
-0.3488480503070306 
-0.5348864906539413 
0.4807367074107584 
-0.4001014990944108 
2.673867717309738 
-0.3218392364076716 
-1.330693784635583 
0.03612203427068929 
-0.1659410690131726 
0.6516694688517251 
-0.07235759817175855 
-0.464984449398512 
-0.2385313415624752 
-0.4685370012221278 
-0.4753381924157239 
-0.03340713195900019 
0.1114087005756548 
0.01428347519819292 
1.266177178182126 
-0.3136371706582677 
2.300797665454524 
-0.1585262213547564 
-1.531334902771597 
0.8101071487677459 
-0.8593318148724576 
-0.1143044072286171 
0.2028322264657596 
-0.1367962933232774 
-0.1141526708310213 
-0.8614875700189321 
0.7066564228178417 
2.106358983475009 
-0.1665293881696694 
-0.4685629947772202 
-0.9046047026075472 
-0.3395100375565159 
0.7020417436895307 
0.7089086230496427 
0.04644865433592736 
-0.6144905555167838 
-1.074737243263826 
0.2587787357636758 
-0.5224327677956463 
0.7367872777622796 
0.1800499543778541 
-0.5759305312027547 
-0.2982950519923077 
-2.283928350303937 
-0.04682623915691343 
1.827361858645852 
-0.2423580825942242 
-0.5498109044004801 
0.2807536232548637 
-0.2934756254320167 
-0.337393576215751 
-0.0409280292655716 
0.762809331727176 
-0.6885315337701208 
0.2668798467537161 
-1.784491395011209 
-2.008247940223828 
-0.04897436626878264 
-0.5882603200055141 
0.2383579605456355 
-0.05915356302492042 
1.643350579676335 
0.2310490953965298 
-1.762526075465829 
0.05435422138968761 
-0.2230185648142156 
0.2078200659425693 
0.9974796180262561 
0.03657460749159477 
-0.8456067911931342 
-0.1629956262797233 
0.2205999377585306 
0.189204975633817 
-0.6613280254814703 
-0.4841365781713539 
3.522837578569292 
-0.6208085496515061 
-0.9108750219282213 
-2.23609932312583 
0.04120909901503897 
0.04752624670385738 
-0.229695962926638 
-0.8588073647247572 
-0.08796428053322179 
-0.6814889315011924 
2.006082229671509 
0.02344800865121857 
-1.319567125311049 
-1.256280463997781 
0.4470074903090374 
2.699486903082279 
-0.6762342058001173 
-1.283874269261685 
-0.6127745645701654 
0.3702341904576399 
-0.219504824619987 
-0.9160006659539446 
-0.05546002397935922 
0.2071307141369348 
-0.530963734800781 
0.7709876243293518 
-0.8461890453259595 
-0.4929729164338548 
-0.1803765261834861 
-0.2165714544008451 
1.341199409810645 
0.09839360420649609 
1.262088923401806 
-0.8796113063962854 
0.3556025234428767 
-0.1420200664745901 
0.6811844443210769 
0.1234047146581745 
-0.9913603850969098 
-0.06683008289420413 
1.143289936115553 
-1.439230755738009 
-0.5855697947063766 
-0.008050192200311238 
-0.14000124208282 
-1.346139072311235 
-0.7475637365370471 
0.5836274761625188 
0.5071842606366345 
1.621996671652189 
-0.1634944944573575 
-0.3357228917553494 
-1.050246139126577 
-0.3813945279223639 
0.2445959386864231 
-0.9568942147627582 
-0.5493571336179951 
-0.6526873016543384 
0.1905331753558685 
-0.1715497282661456 
1.012326724426419 
-0.4573438361935481 
-0.8941572880125243 
-0.3146345862439659 
0.7875279229730326 
1.254984075248619 
0.2335359838079632 
-0.3308336504369085 
0.1061171357659238 
-0.4858716860891109 
0.3161469322639667 
-0.5750055500444257 
-0.3121470440498565 
0.07576766032318476 
-0.01745099258076444 
-0.374104377623746 
1.333105513751843 
-0.7056183501356079 
0.2032420991701247 
-0.6524888092889507 
-0.1876722297462438 
1.445792840705953 
-0.4685552890472433 
-0.2266995295207513 
-0.2918609084615457 
-0.01956686658536688 
1.973433338920331 
-0.2981497840767657 
0.5635623203548102 
0.1591752204781173 
-0.5341110501051399 
0.9912057424330332 
0.2070858674647646 
-0.8789284650175884 
-0.4771661065450593 
-0.9013162647763683 
-0.5097787947382709 
-0.5625970946709393 
-0.2386558777053194 
0.2346872745660427 
2.430146196807949 
0.9736545331789314 
-0.9079393649881479 
0.3087415251333626 
2.334738513723193 
0.08424105320680256 
0.389462700294383 
0.4026586002718369 
0.2257517689443558 
0.7626773346508795 
-0.126330915287765 
0.2266530870587782 
-0.7891106757529703 
0.7119861152478348 
0.1558389387041668 
-0.1030045597156527 
-0.1122745184821742 
-0.2298169436598558 
-0.8627240984925714 
-0.2257326624474469 
0.4511954055721551 
0.1205540443822432 
0.2499653155003165 
0.2053537711985648 
-0.08510985667190535 
-1.034268666198526 
-0.3949262892489445 
-0.7386862840334956 
-0.1064933609554552 
-0.2592064711763134 
-0.1488364903049072 
-0.7498726779783235 
0.6181162454376784 
0.8339380393024567 
0.1907570252728021 
0.6040153043428901 
-0.1802065836279614 
-0.4747862406351531 
-0.3562876558245416 
-0.5101293045424746 
-0.5241593675503582 
-0.5365122389089712 
0.206233288686233 
0.3109517319342379 
-0.3824569746835067 
-1.064795933921815 
-0.4513750586407584 
-0.4144081337097577 
0.7002882386979248 
-0.3741794956350392 
-0.4698531895354001 
-0.1185058322600009 
0.5676750975188737 
-0.6209493238548676 
0.1802215848501957 
0.01039575721919041 
-0.5043512080199868 
1.56112431190225 
0.805949465543887 
0.2913016271702967 
0.1480843192542768 
0.5636344589324486 
0.2437159271789978 
-0.3010158517666839 
-0.4150033709938238 
0.6536838466074674 
-0.0523223944410702 
-0.1593226034425699 
0.2305158188155438 
0.2414887194090044 
-0.7205379462190474 
0.4412781942334814 
-0.3766547834676192 
0.5017686778425133 
-0.2017080971105933 
2.048464747615885 
-1.230119683639658 
2.249585389639821 
0.6434175517799965 
0.2407054354938311 
0.5385699572738059 
0.2499415522211942 
-0.586864103467482 
1.181400339780319 
-0.5295517575776113 
-0.4585121759905976 
0.1366856196171667 
0.002600652399691095 
-0.7174080225701625 
-0.4174208919147534 
-0.5136944821339722 
-0.9627952799728361 
-0.3088077256368861 
-0.2827193140154177 
-0.6507158179355529 
-0.7661427895206461 
-0.7534922624185376 
-0.1728068044543194 
-0.4198658519151559 
1.715178727667402 
0.05021235189305868 
-0.02834029591576628 
0.8992684820858079 
-0.2851951753839979 
-0.1833203124133164 
-1.11149312626825 
0.3734253567856136 
0.3698742458761465 
-0.03305924757725891 
-0.4316497941687298 
-0.6166001361443776 
-0.4415468863257513 
0.3341946132599956 
-0.3964694205135729 
1.46977996923506 
-1.51469092424265 
-0.2933986547082424 
-0.4723169371203628 
0.7933998950943543 
-0.1972212502476167 
-0.138713256860439 
-0.7560200640994983 
3.26107095746098 
0.4577126103305186 
-0.8128356990691756 
-0.09138615750117748 
-0.08449377175695588 
-0.3389993794978673 
0.373770095305098 
0.5676540586688894 
1.931100746076732 
0.3642572025984291 
2.940070657320335 
0.2554261155823158 
0.9163072441342138 
-0.3299081433635269 
-0.3881306983018664 
-0.3361567790357333 
0.3767579393698775 
-0.1832852350859277 
-0.3222829657857951 
-0.1857618084973457 
1.629749541366237 
0.2907004595888214 
-0.06437874705390514 
0.3407935757106493 
-0.0842149303361497 
-0.7724846757593395 
-1.547136978065042 
-0.8755674543666561 
-1.468548870363059 
0.3519208573890472 
-0.4681099563395646 
-0.1660413407804161 
-1.356959908281005 
-0.165094928588312 
0.9514633361632265 
0.9073477381879359 
1.971973378968842 
0.135656899778775 
-1.529787305799886 
1.13012455485826 
-0.2694675828208095 
-0.4915489833445028 
-0.2400764684839508 
-0.6629782694724523 
2.468609347624321 
0.8806801044495904 
-0.7521049450068018 
0.6638132337700907 
-0.1384389155476162 
0.05732564778209862 
0.08442489200921745 
-2.388192672418109 
-1.134777890879465 
1.008513878591689 
-0.587690540118154 
-0.1895222378267286 
0.07641073981926527 
0.7743842457750775 
-0.4262328046415818 
-0.2504715950519696 
0.1017570506805009 
-0.5132861592560165 
-1.125672080733976 
-0.07915709383774919 
0.09896732674250716 
-1.596537940472311 
0.2946716565325215 
-0.1762015958464697 
-1.01832183468142 
0.7467550660508568 
-0.5218116686189652 
-0.268396830584938 
-0.5366493931883938 
-0.08764144370207608 
-0.07057741236541459 
1.265537417489228 
-0.2461596119929779 
0.5987359730589272 
0.07230541634574295 
0.01850592736671487 
-0.3387069913277614 
-0.852620768529197 
-0.7467954352666194 
-0.1606538487326725 
-0.2363238753503079 
-1.040161294643835 
0.6257644738303573 
-0.5949382107807931 
0.6152932105060338 
1.712242188515698 
1.90202228422115e-05 
0.5837170137259595 
0.5450989216404947 
0.3811847751691593 
0.667760469029633 
1.074978068571298 
2.291945419689643 
2.708725380912898 
-0.6446458103136041 
2.506044801957088 
0.7504833574785881 
-0.3292546395758393 
1.030390154447312 
3.698980004423903 
-0.7080457320277272 
0.2763159467257601 
0.6378870615977502 
-0.07940583953242888 
0.2980230915230344 
-0.2284576395949928 
-1.31828941783787 
0.2835009478590914 
-0.9683402091628496 
-0.402260837901181 
1.389579216824836 
-2.251707981600052 
-0.2803560862661065 
0.2451970108510396 
0.1341081401963891 
0.5940048303228634 
0.2731932007128681 
-0.5328190471979282 
0.9636721346095281 
-0.169529138611875 
-0.4738010143076365 
0.1431656266436998 
-0.2451371362840931 
0.8619441275901274 
0.3661776318595293 
0.5531624416348234 
-0.4703958956313342 
-0.06808574533063595 
0.04768397380278092 
-0.1934443691063853 
-0.3619541734836886 
0.9592339813518138 
0.05757722891772112 
-0.2354390766405783 
0.02022333832285646 
-1.070774147149741 
0.1993591550873168 
0.4202567889628129 
0.1548138476164682 
-1.149390306480049 
-0.2315286436023179 
1.052230228720823 
2.251720413872791 
-0.1060577327942028 
-0.495729829238282 
-1.02895741221221 
-0.5669302795348163 
-0.5533262818569833 
0.6763179375632435 
-0.0606302079386663 
1.449169762531376 
0.2296198125962369 
0.181826995145936 
0.4065978240952085 
-1.608117411203685 
-0.5196689772234706 
0.1583345112590305 
-0.1084285861193804 
1.143012253881826 
2.437743459492057 
0.4682341780055036 
-0.491980202470764 
-0.8614264629045489 
0.05344440430595365 
-0.4682767567724528 
-0.213231416837381 
2.93165277172658 
0.5226693939257321 
0.461075575906852 
-0.03652580190852451 
-0.6392116730420841 
-0.9800777773156442 
0.5063888525842842 
4.232533040971165 
2.151650081885948 
-1.375470144402393 
-0.02335468805621724 
-0.4399778163932527 
0.3551299339433049 
-0.4686220880042454 
-1.85996418391119 
0.7757431900285262 
-0.2096311427691628 
2.260140952541695 
-0.5057251827504274 
-0.06991870065291866 
1.728577187924641 
-0.5411583131180218 
-0.587201963465334 
-0.2014662191272303 
1.320972650945127 
-0.4806800200214312 
-0.2285062396092202 
0.1141075637326567 
-0.559141432757632 
-0.6913637198738126 
-0.5683516466576874 
-0.1257636522511317 
-0.2243134219852938 
-0.2567245271630186 
-0.8192930883129441 
0.5323864904283488 
-0.04985452368064286 
-0.5793955657845036 
0.5828089710662288 
-0.7075520694281132 
-0.5326064527830097 
-0.7232151332288937 
0.7562887467700233 
-0.4613342628575791 
1.468828890295606 
0.430136389482802 
-0.7485658926984643 
-0.2617494373689105 
-0.02673944479154643 
-1.01845866015826 
3.853736979295569 
1.087765074223167 
-0.2555742119782375 
-0.2649623183908158 
-1.553332123355998 
1.735238267316026 
0.6289388417444122 
-0.7272409413716163 
-0.8664596830907254 
-0.2737472312540309 
0.2072072787174484 
-0.6765801891322033 
-0.4640241990219031 
0.047581792580725 
-0.513057100464542 
-1.778265588028788 
-1.605689166526235 
-0.4425092938532268 
-0.1945605723211319 
0.1778230105964418 
-0.7326979502088379 
-0.21182525611669 
-0.3539887263567426 
0.579094626567847 
-0.5861197180584404 
2.678568211913996 
-2.706199046003841 
1.056282621846586 
0.1536712857789752 
-0.2873194595915575 
0.322855914000351 
-0.5685847155390238 
0.1723762790806878 
-0.1455221939177885 
-0.1510155413485713 
-0.8231155682147999 
0.5461728222462819 
0.06251541116136802 
1.038003247901376 
0.118328123288572 
0.207295741770726 
0.3183758031930906 
-0.6811337794006368 
-0.2733404269692767 
-0.6274193679202882 
0.01125782981895766 
-0.2466154708296202 
0.1284199695177983 
-0.374653019120653 
-0.4529215321885468 
-0.06139453695789551 
0.1731073094840033 
-0.07651564604622405 
-0.7088772613271506 
0.4866940078773445 
0.8853870046255945 
-0.3716252030254413 
-1.305182012727676 
0.0733377724587946 
0.5064224022393612 
-0.7193623439866249 
-0.1356726697053655 
0.409563528310993 
0.2107775105624194 
-0.9729204481170586 
-0.4798776747658051 
-1.148154086258697 
-1.139828455476972 
0.09182717901449799 
-1.05960811306697 
-0.04491136510190798 
-0.224902010864565 
-0.2967260350835141 
0.4613430770525428 
-0.07222254563307651 
0.5402803846418354 
0.6650649504267594 
-0.1541832207508479 
0.9640683181857309 
-0.009798443049921404 
-0.02782192965806902 
3.925553494692373 
0.1105928665281752 
-0.5514781495783646 
0.6133615331727233 
0.07765949095652494 
-0.01257416589533388 
0.8600594862212027 
-0.2050368039007619 
-0.3205658222552725 
0.4380736823199518 
0.9080833324584419 
-0.1327071777196428 
-0.2170289150591244 
0.2522099581153406 
3.231120839809086 
-0.3909020183496569 
1.021648127829139 
0.08026876503718554 
-0.07911260590754901 
-0.2079317635265927 
-0.4259138211072517 
-0.7560993304489082 
0.2395656599247762 
-0.2930680101250166 
0.2035848604295576 
-0.1656542730510642 
-0.4940142856974696 
-0.3446505344555718 
-0.2202766439364957 
-0.3956796564656319 
-0.1475267932126599 
0.2820987202227 
-0.09299787370572431 
-0.4598637170978747 
-0.1797697203666546 
-0.07406725507664733 
-0.3434324723479267 
0.001282932839019417 
0.3981703711998211 
4.570901650748614 
-0.6203066918846949 
-1.032963623283108 
0.1788468404686618 
0.8196487592514282 
-0.003938641784974731 
-0.4637628969175667 
0.168376876813004 
-0.4340443891423464 
2.939005231796325 
-0.3069008666870482 
-0.0553334376228182 
-1.561715463115186 
2.493324790272721 
-1.241639485760985 
0.9179291634358989 
-0.744547026444547 
-0.432472932961788 
0.05054519716319644 
-0.3832696312308583 
-0.347269525264339 
-0.4733324652703489 
-0.2837810478174279 
-0.390037484640032 
-0.8509465180047191 
0.9569706373365102 
0.5806520513198327 
-0.3075496214003192 
-0.09166676356966744 
-0.03844831371467175 
-0.1143336856373522 
-0.1050235595317159 
-0.01185460174650069 
0.03164390764652714 
-1.092285550430316 
-0.8838313506084237 
0.5176932835311785 
0.1172265339789632 
-0.06600593887873415 
-0.6127817245514757 
1.187506699521678 
-1.600881890874821 
-1.028615448864065 
-0.5680562127161489 
0.2889037953484746 
-0.4359839461947261 
-0.6559622255811026 
-0.3068980536313381 
-0.1253201881824967 
0.3895569854704831 
1.702647314129535 
0.212460180477934 
-0.3331810645670601 
-0.6888884129155707 
2.137106133426007 
-0.7887154140498626 
-1.189194131832872 
0.05875422409532637 
2.562369029539673 
0.3718235486640005 
-0.4901580181465346 
-0.3469237193952613 
-0.190484928396827 
-0.01896516204416032 
1.728297689373744 
-0.4237985517951981 
-1.388329888830324 
-2.048200334602678 
-0.1353512846589449 
0.7374555247351616 
-0.000166864503859776 
3.933645167367621 
0.5411412045988067 
-0.9701465165992336 
-0.9954734689178721 
-0.5979842444764544 
-0.7398900204713634 
0.7586330224182829 
0.4378089999041359 
0.7629902355787883 
-0.3066920483000442 
-0.01307210569078976 
0.8802279065235995 
-2.080090426320801 
-0.2943098692573579 
0.1729196717634423 
-0.6937693918612199 
-0.006504913158142564 
-0.2027769040680453 
-0.1130048829232546 
-0.13292661168705 
-0.01678985772635719 
-0.3627815438455442 
0.6778243201150315 
-0.1878199758321937 
-0.8647032204338028 
0.111400787488722 
-0.8848585762460898 
1.745841521260266 
0.745994769201484 
-0.2243486301479888 
-0.3763676090580924 
0.1098364809276094 
-1.044343015105904 
0.6263504781532933 
-0.3795647510485834 
-1.226936858175477 
0.524671424309435 
0.01438396157409601 
-0.3124898792670234 
-0.8704030263460382 
-0.6684766915958802 
-0.6869884194902947 
-0.4314311119206898 
-1.03824192747843 
-0.8842614639347187 
-0.8858950504296869 
-0.6287764269378328 
-0.4989147056147416 
0.249021418414471 
-0.3645948795023141 
0.7793937644354971 
-0.4673444580804443 
-1.397777929052193 
0.6686629369009627 
0.1158260632657913 
-0.3288754633309151 
0.3898956044141001 
0.1930509813352225 
0.9755802779689531 
-0.03842994362637947 
0.2709132058623586 
0.02794187915513179 
-0.2020804757922102 
-0.01199443231568005 
0.8145627769053015 
0.4956425018608091 
-0.6408717625896372 
0.4642653549544913 
-0.1917177623967385 
0.04449723991407123 
-0.7408496850464537 
0.1686238797351551 
-0.4186472285627925 
0.1500057422146876 
-1.800313792593696 
-0.2212138622427457 
0.8428327516660699 
0.497743535573651 
-0.4638868704361331 
0.5433875011447602 
-0.1589046428378669 
0.1667395812263752 
1.058457955504945 
-0.1412315392030974 
-0.7874287870540614 
-0.84411334551652 
0.6234086826715134 
0.7805502878110178 
0.8754285527858874 
0.5099479892559254 
-0.6509106122951384 
0.04639302676400293 
0.4560076212068339 
0.2324854687290854 
-1.944291437017974 
-0.9257651845246284 
-1.79338627986288 
-0.5235729995087859 
-0.5812807429511564 
-0.6985664276979575 
-0.6382450669966456 
-0.4199813432318085 
-0.3706293524603482 
-0.5944188503278083 
-0.5330253610234763 
-0.7523156125613801 
0.02338494338900456 
0.7957496580889637 
-0.6128448543261167 
-1.124537128048626 
-0.3746191260502161 
-0.798266737570737 
-0.01946713954244885 
-2.229299627276806 
-0.3736940811758143 
-0.1796385726003465 
-0.01916889910899267 
-0.8032839079753433 
-0.8216163975913442 
2.487694226208323 
-0.5821148251500085 
0.6112659307271585 
-1.059260862400957 
0.7475725404774344 
0.6014762140357173 
0.1955759922654399 
0.9184684015950607 
-0.04943390732341386 
-0.1350716018499601 
-0.5386087640538975 
-0.5310876750188485 
0.8626671670882875 
0.1301162513219635 
0.7014264850533706 
0.9233340685561323 
-0.4467528573986592 
-0.4782009607042586 
-0.1074277161637019 
0.02939912110355497 
1.189878811299715 
-0.1769522660709459 
-0.1718211946401099 
0.02713910227366423 
0.9748506121473808 
1.103680697006046 
2.059791694119572 
0.6408222859349602 
-1.132778922610621 
0.6864390270758534 
-0.3636017554502858 
-0.6808578881752183 
0.4500340544939467 
-0.3888260803941511 
-0.8994012809525426 
-0.2346255894522102 
0.2025903288486313 
-0.3946149232581866 
-0.6460085123555598 
0.3166017049262874 
0.5203433293699341 
-0.5097206052987335 
-0.5398416341308789 
-4.228576599206161 
-0.8291668709672859 
-0.3278637334670222 
0.4454878530833832 
-0.1457346756863981 
-0.8520653762194517 
1.732480340779905 
3.261502447982161 
0.05460588459062236 
0.5468997289686666 
-0.6076420494636503 
0.01774904125130318 
-0.9594425025176603 
1.029119252650307 
-0.01021945252230951 
-0.4562509515281192 
-0.2426775206746224 
2.799880365517843 
-0.2462086427855897 
1.185737222056903 
-0.2834900825846993 
-0.07485178895818057 
1.002391530727161 
-0.3321777807749024 
-0.6121102407633077 
-0.2550678721496865 
0.1845645918179988 
-0.04014110966196872 
2.014082429404285 
-0.6207395680641338 
-0.2361324370882674 
0.2861948838202503 
-0.05228786312340725 
0.005707231180787515 
-0.4431632547069596 
-1.158134983553509 
-0.1195060057462386 
2.449778561076644 
1.07457529871057 
0.4984295499114141 
-0.2507715940081793 
0.5879624551846813 
-0.5941994622150822 
-0.3932135426251522 
-0.4994981074907128 
-0.1562278878143917 
1.240321259843014 
-0.08346788432336658 
-0.379990768535635 
-0.02523653906092969 
-1.461937528096452 
0.8734311720655091 
-0.2296457557244629 
-0.4553002471074666 
-0.8135714797920851 
-0.125442246247969 
-0.8029261128990586 
0.06696836327631187 
-0.1400365076140589 
-0.05772905765669302 
-0.01116282627343967 
-0.7159792145826004 
0.1275700698304762 
0.128367849290156 
0.2126263563754088 
0.05607616652872453 
-0.2579796409760102 
2.194943036929675 
-0.2485891887858016 
0.1399417071668272 
-0.2811349885347308 
0.6296841385068034 
1.068192388011777 
-0.1094708167182393 
-0.8157887539383143 
-0.5583197819500798 
-0.2404033038522064 
-0.5146781590375512 
-0.3416576564514329 
-0.3857963736952412 
-0.9749806420368846 
0.4034897179536239 
0.1597479665596128 
0.6416604345070769 
-0.8332732338123472 
0.7918360522922995 
-1.325661308665655 
-0.07159749048672336 
-0.8944532353253041 
-0.05748169504625115 
1.202199417670407 
-0.7156812169190251 
0.443579496825884 
0.05156432079044333 
0.3387108029269899 
-1.354422198720638 
2.067871475134462 
0.1513244598029739 
0.3154786632765369 
-0.8825542775489328 
-0.7111909858281863 
-0.2272044007851945 
-0.5212073640351804 
-0.9681423495491567 
-1.536585960229438 
-0.6718015910165175 
-0.5863923947407237 
0.3289750990661527 
-0.4753820143733389 
1.119494580239263 
1.049331044206919 
-1.281622049688793 
0.1944399389503261 
0.3844220618671026 
-0.2526076727433706 
-1.025406551657679 
-0.03068599590875173 
0.2817027957026301 
-0.8815231150192067 
-0.08834591964714639 
1.642834944999007 
-0.6742682389465199 
-0.4025549189124874 
-0.8069349362834197 
0.06138264263642149 
-0.4169898315337729 
2.378366758441229 
-0.777378360885827 
0.2248274388381358 
-0.09901100213637855 
-1.007343564693674 
0.1615172617680697 
-0.367212137731822 
-0.03395977085276179 
0.4514895568458933 
-1.06648219930504 
0.5689408842126393 
-0.2728089940427653 
0.3171948332994622 
-0.8043325004753964 
-0.3468672812079895 
-0.3062002899905059 
-0.236045456249354 
-0.136718199153294 
0.3826982002326726 
-0.5385424161416272 
0.2098518862008115 
0.2071252729776736 
-0.2712036655722859 
-0.6606835767501436 
-0.2359264111079394 
-0.7467015054352882 
-0.2962204029191229 
-0.7304745050390233 
-0.124054324511886 
-0.7145921618470565 
-0.2861840928668968 
0.5967923173998546 
0.7204091004153532 
0.6050148331115864 
0.2194821696653619 
-0.1425522396174508 
-0.3451884252643376 
1.002962549684136 
0.09075550317534894 
-0.5664482066019672 
-0.8034773516701972 
-0.4294895156236381 
-0.06254018470757734 
1.52742828984279 
0.8210310168871787 
-0.1317762383016342 
-0.2913169476356726 
-0.2754331815193969 
1.377304651091387 
0.6215387299008245 
0.5537696695398731 
-0.4757688769026125 
-0.52335377821158 
-0.3817838894592793 
-0.3712950282718318 
-0.4456539981909269 
0.6268920664071043 
-0.5854785917561 
-0.3278886973653534 
0.5315282537236744 
0.02275544894689679 
-0.3545667665178754 
-1.314003690642744 
-0.2121448056191792 
-0.1487139661859637 
0.06012565538517082 
-0.2387282557745153 
-0.02906079629457781 
1.020065468191981 
0.3199217953449667 
-0.3531818671645867 
-0.4906405032931815 
0.6405317578798257 
0.1544723239018141 
-1.365409197132968 
0.1546891904538203 
1.332544331957137 
0.8589187136395985 
1.149773379249798 
0.03963677686708997 
0.4563257876888263 
-0.6873023820040149 
-0.7177325118164444 
-0.1053671639267701 
-0.09038320311168406 
-1.725037978349956 
0.4519138014531067 
-0.6399506005392757 
-0.3731867740583992 
0.6555715942165933 
-0.173549835814879 
-0.7550766347505844 
-1.012533484881347 
0.5813710799917219 
-0.4412819805905812 
-0.5118318297720584 
-0.1108631621302158 
0.473790419331128 
-0.4689874065507328 
-0.5969269808207619 
1.46378734512766 
-0.1971614652063951 
-0.252078307717056 
0.08277240164315154 
1.643631928555972 
0.707978915592774 
1.122035284633957 
-0.2713667559936385 
1.113520052114323 
0.3674718779569569 
-0.8063930428386329 
0.02138762505668557 
0.1524943054312719 
-0.9130390218176615 
1.438596482885946 
0.2456320787489143 
-1.002513618850311 
-0.4122892843473618 
-0.3107399424442228 
-0.09944566211740784 
0.2911432624275514 
0.8099688302537584 
-0.349757907655405 
0.1451758671071123 
-1.153663183746809 
-0.8777764642282982 
0.06238341673856747 
1.145059129557986 
0.3139643744551951 
0.2574939730490057 
0.3163198082831252 
-0.1519907023268199 
0.1671755987810481 
0.786050155814119 
0.2696036328101108 
-0.3876589627531725 
-1.12570967563512 
0.4485475016754121 
-2.179490853702588 
-0.2074735449266243 
-0.157036404714188 
0.8399944777116053 
-0.2425050988863956 
-0.1573043932275005 
-0.6290690535018459 
-0.5391603201245836 
-0.613620469724142 
-0.1673383317248821 
-0.02289240274898238 
-0.169279042002335 
0.06708143751286286 
0.1119642606993455 
0.06860972042742042 
1.726436892659194 
0.1720797412594041 
-0.0267419164117683 
-0.4875176633474868 
-0.1152622262667966 
-0.8840871116052015 
-0.82554644020271 
-0.7095756197459492 
0.3042585247343295 
0.6493660063369641 
0.5488516480008784 
-0.01394845685980579 
0.3515814764689057 
-0.05563514546080348 
-0.1951087541559158 
1.040488646430508 
-0.1124256630538229 
0.7533651070744897 
-0.684436459284313 
-0.9140535478295201 
-0.3792653083863787 
-0.7618008928626597 
0.1926840016878184 
-2.128964514162673 
-0.4796016929398352 
0.07055460407324726 
-0.4524673362365134 
0.8841214406558611 
-0.02655614696439335 
-0.6413381926513064 
0.5585350125367486 
-0.8052451149498765 
1.138997150123998 
-0.4179790037474427 
0.1917538420379695 
-0.4754184031524419 
-0.03271307544395664 
-0.2803267601745719 
0.01101056182453771 
-0.1455673101362219 
-0.6100998958218954 
0.2351481117224443 
-0.1954473187381672 
-0.3927281475237456 
-0.4161292662932022 
-0.07789608825249429 
-0.4079661512609229 
0.2629856020552426 
0.8765000462658493 
-0.3260577165692934 
-0.04317908867920196 
-0.01970116314789733 
-0.01877871690901633 
1.305809980711129 
0.06564701215688101 
-0.1899301321424563 
-0.569587967948979 
0.1991588795167436 
1.719893552331338 
-0.5078422454427481 
0.05750932954087436 
0.498076099296801 
-0.04296557075651934 
0.4059302332383025 
-1.099672624748332 
-0.5593952730906667 
0.6534089014483422 
-0.1343600666460157 
-1.665888086418696 
-0.1854951548578256 
0.7509116697782553 
-0.6478399631083268 
0.9005895796957827 
0.3450622125773032 
-1.942595615783364 
-0.3717694257928745 
-0.2532736792814625 
3.237264474614122 
-0.3974895953226628 
1.308864186082152 
-0.2066341641558038 
0.2108394820773883 
0.8893002095941245 
-0.4502246993573399 
-0.3812556081304364 
0.845250476058763 
-1.053899039647522 
-1.05046922489518 
0.7030035094067522 
1.278555970407674 
-0.6152336841073003 
-0.5022860523278665 
0.3747161976465317 
-0.8865564052405128 
0.7872548143207373 
0.01936301292325081 
-0.0830517507285142 
1.151185485682304 
-0.2232736699007048 
-0.5860358347060981 
0.2080282219939764 
-1.038089478300765 
0.1376962985657027 
-0.7112261619606423 
1.226122936313139 
0.4830242055812263 
-0.5413681975298944 
1.616841533748496 
-0.8331766343189654 
0.4492966451961969 
-2.491053029634325 
-0.2013613359568391 
-0.3145530288162243 
-0.5535436804735979 
-0.08768365351856067 
0.6082851214199887 
-0.2492557978356831 
0.2442257883054712 
0.03663788222085967 
0.1097080760725428 
0.2842986913639355 
-0.09018255279930712 
1.371798290579209 
-0.2208852130494807 
-0.4905563267824283 
0.9952504883689763 
-0.05043354974836205 
0.3673743451244639 
-0.4706227635061248 
-0.5132867924677736 
-0.1908150844455621 
0.3869122082242599 
1.55352600183821 
0.1069003033439527 
0.04113878350509157 
-0.01774268747446315 
0.2882759600710769 
-0.4912686911230121 
1.123506880789739 
-2.004195791088012 
-0.561676043194152 
-0.05604787413390172 
-1.258499660390453 
-0.03754559885336162 
0.1026946528783982 
-0.1762862529350348 
0.2871514315923842 
-0.513081374599977 
0.0788341971586311 
0.3642286748193959 
-0.769404407973149 
0.9301656591279623 
1.755738226830977 
0.1327913767351576 
0.433231676759684 
-0.07191512905371848 
1.64415411999178 
0.2843726815934028 
-0.1414144130609858 
-0.2574207489696214 
-3.377763264504187 
-0.1407972818446849 
-0.9888096021064608 
-0.04349767002657804 
0.2083113913069613 
-0.07635745854979155 
1.294899047893288 
-0.7517267889060001 
0.4136328929502204 
-0.4272209513379662 
1.735056187857476 
0.3910939336316315 
-0.4309163856817402 
-0.5921712036847504 
1.437716544741496 
0.3004032143974563 
0.3596248735007578 
-0.1226760830479094 
-0.2351834367892648 
-0.2510381015714939 
0.5040650518079941 
-0.4469571461595693 
2.01572338355978 
1.205756880128341 
-0.3769220659182698 
-1.570154404042803 
0.6486218525223393 
-1.066751082344011 
0.4719525635211382 
0.0864154765811877 
-0.6456900192556089 
0.667840695234543 
-0.07154954798021051 
0.7187565733709653 
0.3148149658665869 
0.6133869427732153 
-0.9792553709954663 
-0.420892135965274 
-0.4722165814191968 
0.8966788409022222 
0.1495196563216999 
-0.4149236218241528 
-0.5236058378767622 
1.033603003439059 
0.6263740167162283 
-0.3991244945711691 
0.05658219174431243 
0.1476821402291197 
0.02779016569372522 
-0.009761220037171697 
-0.2635159733329996 
-0.5850058819857484 
0.5133698145028922 
-0.3045490525017813 
0.01652599937467093 
0.2857748829740375 
1.350509928813635 
-0.8979739934616642 
1.402590369971956 
0.3393757051823797 
-0.2043220029577605 
-0.5328718151242984 
1.997128847657031 
-1.194996037302338 
0.6471273791750523 
-0.5344889397403414 
1.391880356064565 
-0.8151308932715431 
-0.8220826072065929 
-0.1286387370379696 
-0.2492732556913344 
0.5815227572965102 
-0.1449432431840779 
0.243683492736325 
0.2969343064870109 
-1.478111484400219 
-0.4625839353367273 
-0.2814955879792655 
0.2483168151107752 
-0.008908988709318499 
0.3365851329860697 
-0.476603445445728 
-0.133041535383705 
0.5657594994413313 
-0.340236422525564 
-1.560462371694679 
1.628867153290121 
-0.004222456117257918 
1.711634990103504 
-0.562260443625642 
-0.385848354090461 
-0.1063016331532842 
-0.4726164409719268 
-0.06601725716659582 
0.1863031184251387 
1.124374025873685 
-0.4965165977370284 
-0.9912987338217444 
-0.2385093163039915 
1.550732217814024 
-0.4680845115666722 
1.275216067204152 
0.03002904402614192 
-0.603685426884887 
0.03455782640735118 
-0.9273981694089174 
0.5709320256702922 
0.02438602481948242 
-1.422696389149509 
-1.455753032563471 
0.206054536018942 
-0.06737996929912687 
1.718470352541198 
-0.4911769493527093 
-0.1751452318549466 
0.5207269303783056 
1.159139362172051 
0.3652447529831774 
0.5735115256894896 
1.04725239510578 
0.3545785002777633 
-0.8591421089245139 
0.06890165230477684 
-0.06618253719159195 
-0.03099472041108667 
0.1878146915941969 
0.3654931674924219 
-0.2530122505326939 
0.5177736774022753 
0.03596859699986749 
-0.860753851323978 
-0.4260742644824372 
1.592600201977163 
-0.6508125020625989 
-0.5108693191815309 
0.1048814413196016 
0.629244387247095 
0.1871972513084245 
-0.02238777615626593 
0.2080758071274128 
0.4133648839687486 
-0.653782020473721 
1.434635294386087 
-0.2515469158168335 
-0.004501364674368992 
0.3152682372487547 
-0.4502752295765703 
-1.021422971168676 
0.5949998802833385 
0.3387629175377601 
0.7002864845386316 
0.01759408012494036 
0.186539126018554 
3.076598429058127 
-0.2986329090977616 
0.369696545438947 
-0.1278771920074256 
0.1464725275507292 
-0.02257018469256798 
-0.0226441251275265 
-0.01612605869233315 
-0.3339448243112564 
0.3292597111851114 
-0.4654649939476985 
-0.6128232018637882 
0.1683507278899005 
-0.1879433961191942 
0.8562630185199205 
1.491262250156222 
1.170499451835029 
-0.6820450379657446 
0.6046087492962392 
-0.2995300031839078 
-1.087269510536034 
-1.234474900541216 
0.0582754381787835 
-0.5915623486334703 
-0.2932556341891828 
1.043753208382811 
0.2010524672741427 
0.8121295108440785 
-0.169521670512959 
1.234350348500943 
0.4507674592044693 
-0.12301380099254 
-0.05905963781784422 
0.594253992046864 
-0.01721026892782441 
0.1870511692658906 
-0.3601547828104464 
-0.06244628716097811 
-0.4400070462735547 
0.08767573586441371 
0.04782563905537503 
1.621945912481009 
-0.4371580003608448 
-0.3016851762995411 
-0.5465773499810864 
1.353178624134172 
0.2495629174291298 
-0.8186049180382785 
0.1287010035119491 
0.08797807747967028 
0.9703341721746306 
-1.231174625462168 
-0.7217061367088509 
-0.7806484295659035 
-0.1388108162545562 
-0.3459566977933398 
0.2307695007938454 
-0.3562666227377039 
0.3755355152610953 
-1.1090909637482 
-0.7611990217027493 
-0.03172495505163513 
-0.1064668515948212 
-1.478966474228796 
0.238526177300115 
-0.4105058428033218 
0.05812268285388079 
-0.156144888076986 
1.024260605176396 
0.735312005305898 
-0.480092917109263 
-0.09093421468515568 
-0.5845374592799751 
-0.0199032594894894 
1.369329196130018 
-0.8833295591748053 
0.2254159353726113 
-0.2139217437221236 
-0.9475867021690523 
-0.4601052458492822 
-0.7681272174547901 
-0.5095827112133895 
0.04174348100316105 
-0.09912416378581777 
0.6118294574009012 
1.106152173075811 
-0.12742803098589 
-0.613442613570007 
-0.3875565769359307 
-0.3335032026496473 
-0.2190725824796231 
-0.4589607963225139 
-0.3721742375530533 
1.914612585592113 
0.1393677907691873 
1.532303173785623 
1.972671936894284 
-0.1178540861205348 
-0.006960307999664962 
-0.9415565641666572 
-0.4694692552157962 
-0.1801915426127094 
-0.1609662298454275 
0.05070337295761676 
0.247589577920577 
0.2059215449897077 
0.009379464112291978 
-0.6480983585309958 
-0.07037825544846611 
-0.2514915128524231 
1.689242645377616 
-0.9722085658604593 
-0.7221321184728439 
0.6270112037905123 
-1.919480569212163 
-0.06946705518357726 
0.06053462009184235 
-0.14343211488739 
-0.5628567270939542 
0.9873342156008176 
-0.5672414288896448 
0.270042144699961 
0.8181391662432537 
-0.4237494933764559 
0.2301836634165017 
1.771484943955937 
-1.154087381787095 
-3.58137142652979 
1.223506074133166 
0.3639963359858649 
-0.4625940168229592 
0.7591932057369175 
0.1712699661966667 
0.8547581798599518 
-0.2437765192239705 
-0.3981984514845398 
-0.1680147872717257 
-0.4733115692793952 
-0.8026958739391321 
-0.3007984970737825 
2.326771716541033 
0.1207064053850319 
0.7479863244261874 
0.7763128106191917 
-0.9580555008185337 
-0.7920167109812576 
0.04069180880090199 
-0.1211205099649479 
-0.398774873520727 
0.7243738654784689 
-0.06891916738793695 
-0.313031057693884 
-0.7171982997072801 
-0.07241523368357616 
-0.1067128005942501 
1.691191838763289 
-0.1209160066090065 
-0.5379282063017713 
-0.5963526447568059 
-1.274579957140203 
-0.79045332873312 
0.6145685500179202 
-0.3527924892453652 
-0.1479712953463524 
0.6370035128315975 
-0.105800086673155 
0.5660833990635972 
1.15156138819666 
-1.097806981087091 
-0.5175237047921332 
-0.09723055390726493 
0.3465730552039752 
1.005015844870337 
0.1507611284810113 
1.089438955458556 
0.2796391057593385 
2.210848997156558 
-0.05812634266267189 
-0.1075527456628885 
1.720921399724608 
0.5314897438950531 
1.060647348848354 
-0.01540333131383557 
1.518654084738186 
-0.1659068902597235 
0.22161265348409 
0.4017858335371117 
-0.8249300786814298 
-1.017239522822042 
-0.7561997023138225 
-1.255613428750929 
-0.08353251318252411 
-0.2008240812699944 
0.08866333204196526 
-2.708381756546459 
-0.3827515932163625 
-0.4185676027316327 
0.5671348629777934 
-0.4313373349519311 
-0.3149890008045161 
-0.1950614159843808 
0.03479478156258668 
0.2079114234000202 
0.893594586455174 
0.2472441785122718 
0.7467677125380918 
-0.3499716464725381 
0.2231748653095874 
1.150720832676277 
-0.5346334664066988 
0.2942357426455205 
0.1370262866326097 
1.074455186797894 
0.08531450720706767 
0.0007481590119552128 
1.507092786542576 
-0.06306511210552854 
1.544141291053207 
0.2954057953136884 
0.7804118449305784 
-1.268131189618224 
-0.5001599503196963 
0.2378566035818643 
-0.5958954449214183 
-0.4414179454167301 
-0.6045015037327588 
-0.1002538920481363 
-0.001622961566970241 
-0.01281407300717323 
0.1068671988318952 
-0.05103061026962918 
0.6169688462838204 
-0.3290334456232711 
0.1688502163474798 
-0.8331643706693688 
-0.7131578910713759 
1.542681488142104 
-0.6405758847033985 
0.5884867620048426 
-2.265174108306649 
0.6314163386926815 
-1.096723079616825 
-0.1512357460891326 
0.9850756792766765 
0.05157940920337416 
1.836585158636987 
-0.3270131777118288 
-0.1132935821552373 
-0.263140354190915 
1.049792658915695 
-0.05525879041521167 
-0.7737171081774753 
-0.4417303427277353 
-0.7257728691045362 
-1.284137080842415 
0.5784409840956211 
-0.8235736963275719 
0.2440132310314773 
-0.02356694881341462 
-0.2863623864179458 
0.3553512443908703 
-0.517914704443991 
-0.4372879307370418 
0.2017638682867081 
0.9077508171197914 
-0.07784451667294802 
-0.7311911177980113 
0.5883274877972146 
-0.3704971255204106 
-0.3991423752273152 
-1.444131964862775 
0.5488432273507257 
0.0595951578443904 
-0.8387783563722861 
-0.4180076118775448 
0.6939550557388596 
1.983883661683265 
-0.09998253291283078 
0.7356635703630554 
-0.084832621139382 
-0.6325360687077529 
-0.8727146413259987 
1.722041601128917 
-0.5544341794293635 
0.6242299393817609 
1.091074522039825 
-1.833436922557144 
-0.198637490934385 
0.3037357060197702 
2.576372580371521 
-0.9589429024013952 
-0.1119802082597404 
0.6533611929938413 
0.7732077178709496 
-1.287308451304185 
-0.04290185871920611 
-0.449330905837251 
0.1430445225829859 
0.9082246514720675 
-0.7284731297485193 
1.014902741341714 
1.408898834015326 
0.6314502268908072 
0.3034065924172759 
0.1146250926713881 
0.5806896075173729 
1.076594001115745 
0.9322971537868491 
-0.7198114934806279 
0.2537861472482271 
-0.7288033576985837 
-0.5348754619721952 
-0.04781076480727246 
-0.3272377972904647 
0.275453728268805 
-0.01780041944973102 
-0.04918433589437769 
-0.1966675298252321 
-0.2584051855556059 
0.01952219799328293 
-0.001695148479309169 
-0.6264366588365399 
0.7361522752132027 
0.4843037533075336 
0.006173020939099466 
-1.504064926017888 
-0.2715514737428876 
-0.227674014092933 
0.1980306141113654 
0.3916464468115375 
-0.8738134030388256 
1.287893205911184 
-0.2499794463425843 
0.3711734025614702 
0.1813466295020717 
0.1131761625981257 
-0.4480120478986235 
2.781070823966676 
-0.2786140375727718 
-1.343039286994363 
0.4283992459486041 
-0.5351483351631408 
-0.1962411320726751 
-0.1819464091384606 
-0.5910510482748207 
-0.0741278621711898 
-0.101207565823906 
0.7520931646795139 
1.590205254535392 
-0.2256346601736537 
-0.914980414792288 
-0.8960014736613574 
1.886324361725472 
-0.3383716238170952 
-1.056300832836134 
-0.06442710504131494 
-0.4838167969953532 
-0.8283428369351485 
0.7669996873610475 
-0.1794638693200573 
-1.239060797856091 
-0.473486186112487 
-0.4926095456472646 
-0.6943925204502259 
-0.1037310498704778 
0.04548373981522206 
1.578797884290763 
0.9796001051244065 
-0.3899868408652533 
0.4258234771917153 
0.07718106407905728 
-0.385175839751621 
0.2160590531736731 
-0.08884094936936868 
0.2988404797906389 
-0.09057234130008082 
-0.1480757213667857 
0.3757524397121051 
-0.3157653040766077 
-0.1102015211280159 
1.05860742267132 
2.410132186695695 
-0.3025284673992342 
0.1554908915054367 
-1.056617516902789 
-0.4923170182570451 
0.893595900519503 
2.728307077232046 
-0.3868186352147964 
0.1476619331055025 
-0.7048945307694978 
-0.02066548477765065 
0.4662777492481202 
-0.2697764531889236 
1.636769031066611 
0.9178066648055372 
0.551688734405049 
-0.2130067314003137 
0.3760216530490876 
-0.1438986642014426 
-0.4633278945044704 
0.9871395484989 
0.2049880607600608 
0.3415155597868186 
1.550448543535098 
0.09751314795437961 
-0.3391110076116368 
0.1018429940415082 
-0.4456342687253685 
-0.6965540493350759 
-0.1059113815051364 
0.2756171264527593 
0.2090957316727964 
0.04732038837427299 
0.1813606998688708 
-0.7525696146980925 
0.7460584134494654 
-0.8101691760520178 
-0.2681827970454591 
-0.3999146726096799 
-0.7652513681594384 
0.3002256106648465 
-0.215214559067415 
0.9112948740837928 
-0.2378331586692474 
-0.9631104464982905 
0.2450978308800835 
0.2581435190477859 
1.318077172358485 
-0.3292667439142967 
-0.1107468025399572 
1.054684305498877 
0.7837168222720903 
-0.2685729775669035 
-0.02463122390000772 
-0.5180309115288056 
1.209388338308931 
-0.294581872146751 
0.4174168236081069 
1.976942859114654 
0.9052618871635789 
0.9451999673874893 
-0.3572740900680464 
-0.2037858068856514 
-1.459566386264571 
0.9507360748998198 
-0.01218383920028678 
-0.8382243011288241 
0.6992224864145379 
-0.2497940181464758 
3.147125223417099 
2.580919681133314 
-0.6022839837910851 
0.7888785341802116 
0.06989179589560704 
-0.6562879597109993 
0.9980479363565073 
-0.4219480157325963 
0.1883370910157244 
0.5343797082774536 
0.2611915246945394 
-0.4315022993684978 
0.9639833070900885 
-0.2391767495541183 
-0.1795004709942007 
0.7167693180535997 
0.7854926121884145 
0.5099746238592046 
-0.9159846600078548 
0.1403403804292902 
0.2921797623607659 
-0.4854332233364128 
0.1002479144268077 
-0.157853811778951 
-0.4477817759227328 
-0.4177454804006209 
0.1884751984459202 
-0.2452692960492125 
0.8765896739802688 
0.6058796024131046 
-0.01251283925019053 
-0.4244546870812734 
0.807576132791274 
0.9380058752433652 
0.6488822355851062 
0.1431651487006329 
1.202157859988203 
0.4797289584569081 
0.1179227601434611 
0.4244842878976893 
0.08896548069304225 
-0.01693669197616271 
-0.0120592199395951 
-0.01711927534625466 
-0.1802056945261941 
-0.7380312297195517 
1.799572199130657 
-0.004523016990549147 
-0.5371903694151515 
1.502235966353717 
-0.5840113414665015 
-0.8129316944678808 
-1.436275136883061 
1.468140802994251 
0.2114668992820086 
-0.9714472530423131 
0.8147014800748613 
0.3403750986122452 
0.01930139710705125 
0.5203840164985531 
-0.3391065080198792 
0.03709609663688281 
1.691277536687481 
-0.5455167122332005 
0.6207887715770628 
-0.8430048588115489 
-0.62870201196006 
0.9812341193877843 
-0.9857205087011071 
-0.7071844475793946 
0.2044193383938416 
0.07291726876812532 
-0.4366812449198448 
0.0674636299182366 
-0.1663313028808337 
-0.336044465401755 
1.7621974056219 
-0.6521395014725776 
-0.5705508982600971 
-0.1640453537536032 
-0.2838811546408113 
-0.4774989709928351 
-0.4307128978149317 
0.01729364583549586 
-0.1418917524899715 
0.3685570841847503 
-0.5948131747397343 
0.9332195259419312 
-0.9073290756073757 
1.148917180458236 
1.534713281813212 
0.1271671624300382 
-1.699386267507387 
0.05275728093249097 
-0.2969971760887281 
-0.9260760375148044 
0.4231350932372477 
-0.4544948205232404 
-0.4865881161662076 
0.2542260294810139 
0.290723699213289 
-0.9647964450627665 
-0.3090794440364363 
1.352990165562144 
0.87298515634592 
-0.7119826544262642 
-0.2513960063257215 
-0.02511142553887045 
-0.2209875611598077 
-0.07562101120733031 
-0.3188668011507924 
-0.0975874230349851 
-0.3205542997430241 
-0.376477402605092 
0.3876193909640542 
0.4335468032747399 
-0.5127745744687069 
-1.272492665788682 
1.181771272316122 
-0.1205350530913056 
-0.6676540544194963 
0.952518826455618 
0.2321709074150807 
0.009845382545323578 
-0.381333737364041 
2.487021433591091 
-0.1741094557763431 
-0.2935892307109936 
0.840759575017191 
-1.165492992112934 
-0.557611949933203 
0.3456293569543852 
-0.6291851466968039 
0.08216330505367345 
0.3283141978032781 
0.1039944415170759 
0.01110580578443853 
0.4833529398303721 
-0.3756931773356657 
-0.4061457662387875 
-0.2981047985301895 
1.472313582656777 
-0.5979316775677131 
-1.256684956876655 
0.8816027493405819 
-0.1866367836078507 
-0.3330998457596444 
0.7181564740002159 
0.09922399259699632 
-0.3904857590572429 
-1.62142415549243 
-0.2086649382959446 
0.4814037722446962 
0.1095881805691149 
0.04890068108119892 
1.025448692029515 
0.574238500629883 
-0.6650600745652188 
-0.1231181969293076 
0.8157548394941431 
2.758749178711755 
0.1578190638624977 
-0.6377357154534489 
0.3698202945713942 
0.04672793535410313 
-1.000947183199584 
-0.2059868021552323 
-1.556855421438486 
0.2203388219833824 
0.2280648062510232 
-0.7947538414099604 
-0.06387940405066388 
1.095716801389102 
0.05118242295693359 
-0.1950901369962535 
-0.4653529255455484 
-0.3073796377909588 
-0.4194751851497904 
0.3075049125575759 
-1.110080613100649 
-0.4597344351379513 
0.3597331639635024 
-0.10866880885909 
0.6095675960219216 
1.874085270135382 
2.496222093242545 
2.277565748034819 
-0.3187397549279112 
0.08126701336730272 
0.6787182800495197 
-0.4565630870548416 
1.211589109612836 
-0.5995378985526552 
-0.07767033675230663 
0.7711818374329072 
-1.196543252762951 
0.205616252426815 
0.4344615304583385 
1.986851940724785 
2.641452392815749 
-0.2988698135779914 
-0.3194773893656269 
0.4945459550591905 
-1.192121171077754 
0.02738114449502545 
-0.3460516602098905 
2.25340139274981 
-0.491325003269319 
0.1846544037154493 
-0.7007985634830088 
0.2271706117802952 
0.1505743573586899 
-0.2120953630641751 
-0.3533201436227938 
0.9104514455498459 
-0.7507520814756892 
0.6028332083830411 
0.4494106691881774 
-0.5997804898852899 
-0.314910842415134 
-0.4890349337599976 
0.2485692575999306 
-0.7001000732011494 
0.8138565654734643 
0.3909671027779879 
-0.9646280620693116 
-0.7928138682998123 
0.04013349238602755 
-0.8884546739230182 
-0.2489419684440968 
-0.5380191931125214 
0.9542624877585719 
0.2123220329655235 
0.07334732884245514 
1.211526549232549 
1.17251715815492 
0.1441387490685191 
1.119037323624229 
-1.072827955686276 
0.1050234697192477 
0.8565417154052652 
1.343417761519815 
-0.04705882918241714 
0.206722765047491 
1.308490737468777 
0.3841024346380124 
1.17867369907062 
2.550381040567357 
0.01008420802399841 
0.9752053850553226 
-0.3042836920723924 
-0.6160478806570866 
-0.4330287106704578 
-0.01722052500350462 
-0.03734094457865167 
0.4380339221894627 
0.304710686180623 
0.414584926475788 
-0.123201086167229 
-0.259070215857798 
1.056464297295997 
-0.1389702515906575 
-0.351765838080516 
-0.6495036496374748 
-0.2289841620182361 
-0.2537616042183701 
0.002842857138729889 
-1.070746072772513 
0.9788275774390341 
0.04989804135188974 
0.3432639610834774 
-0.5921572690446435 
-0.3347159949308568 
0.04184892825354536 
-0.231308731353344 
0.2842101213733235 
-0.05106440910976617 
-0.2083158747162045 
-0.1513358077832807 
-0.2908050849921884 
1.14043676984315 
0.261819097026987 
-0.1447547392555388 
0.1115359997624225 
-0.5093284920679572 
-0.4530183424452647 
0.7057780704842401 
0.07314125217568761 
0.09571353753521854 
-0.1766151733339773 
1.249440608907479 
-0.09444776104415062 
-0.2957383289289329 
-0.07959838869405071 
-0.1448968158264947 
-1.350621925471001 
-0.2917176719624678 
0.5326321193661059 
-0.5087866865011845 
0.3279310989995079 
-1.295054236844027 
1.240906910749195 
-0.1493389460362503 
-0.08705248706214623 
-1.174397550077396 
0.7116397733434426 
-0.4960928137918918 
0.04782685242152331 
1.195073504709702 
-0.0378624247638267 
-0.1025063203536209 
0.4584593654554565 
-0.01261962437609021 
1.038522088994875 
-0.1200966446093887 
-0.1160393369570248 
2.786741073624508 
0.02193458460366962 
-0.6571014940206013 
0.3144939251048375 
1.435744837511407 
-0.0005730096617809939 
-0.34583316600232 
0.7541313347418446 
-0.5966002868251039 
-0.514121698887292 
0.06159251549978326 
-0.2981563110761523 
-0.8775193442164122 
0.6809411570765536 
0.3691588283601281 
1.423610102256273 
0.1358517445113012 
-0.245357520027475 
0.1401815041049614 
-0.6527127061537361 
0.341507189775717 
-0.4747079644271193 
-0.9730040207459471 
-0.7078330643000401 
-0.6438384702789892 
-1.058001587364075 
-0.06910410320400021 
-0.3974657225933821 
-0.03490057980815047 
1.207008676237247 
-0.7076260995126109 
-0.3660855784068831 
2.06746234073172 
-0.2208175050708016 
-0.8521669246025129 
0.08346983981162913 
0.6691501333924719 
-0.4648186689783884 
0.004778620708528455 
-0.3673485400197437 
-0.3413495543076077 
-0.02028966122139264 
0.0600180821098957 
-0.5571540298614758 
-0.08000953155468177 
-0.558375769529486 
0.6830067752701532 
0.2019181470702547 
-1.010443068312006 
-1.862140699345621 
-0.1471814508159001 
-0.4724647433806469 
-0.09211075216568286 
-0.03998796283201056 
-0.1364720326032087 
-0.2104444857451224 
-0.04786520093564256 
0.6741244291704183 
0.2125990172787852 
0.7089170309298237 
0.005665147936485824 
0.472317000526506 
0.5186146720105936 
0.1681868154993993 
0.3689905312791054 
0.6362165645706382 
0.3403042491056362 
-0.2935701169820653 
-0.8602095377054487 
0.06295507445580639 
0.4622352223405025 
-0.2307380267056658 
0.1815259928744544 
0.3673075105287287 
0.007149205501782531 
0.1474447451868072 
0.9363611863666037 
-0.1715707906003161 
1.206280491308809 
0.04869707292946115 
1.195147787079826 
-0.02321332614991772 
1.244410471696091 
-0.1659449630977136 
0.01882114508017181 
0.3767086579491961 
-0.2630411695618828 
-0.7073393613651507 
-0.3241558349733016 
-0.3086911269709312 
-0.2921896374845164 
0.8493150524614983 
-0.08303732965328284 
-0.3808684740549092 
0.23414060260109 
-0.07325238378680102 
-0.1152917400458787 
0.5886830779099207 
-0.7329540295357487 
0.6745509892471482 
-0.9728077634220236 
-0.5587906939704804 
-0.004372408504471383 
-0.3583310546670114 
0.410696958803918 
0.3397027179079671 
-0.7691705337158254 
-0.921954213953611 
-0.2969904833508772 
0.9135142293182799 
-0.1841570460388935 
-0.2937589118016865 
-0.5690489126843258 
0.8658196881154696 
0.9503252898372095 
-0.09200982152662951 
-1.196514686462494 
0.01796409469470199 
-0.5787473829566233 
-0.4943278460803057 
-0.8772484635358413 
-1.335456779326616 
-1.096003823440548 
-1.850888925763813 
0.1772311725701833 
-0.2127221927569891 
0.4676675949315905 
1.070535896855578 
-0.8995301262586128 
-0.3628730236711728 
0.9530494965781157 
0.3826372425601458 
0.4841169682298481 
-1.190522507544448 
-0.1003368765063694 
-0.7997407053268806 
-2.534508717754216 
0.2889690498236134 
-0.0006651027239026885 
0.7732244668878241 
1.180892672202046 
-0.1459572194912548 
0.8856054667650226 
0.7553051198841146 
1.235236537546997 
0.3740361430384772 
0.1277997828839151 
0.5787253272060012 
-0.2672022287176207 
-1.426631824931085 
0.01568034439743871 
0.064668553980892 
1.463514908285238 
0.6073913177682857 
-0.1826781152663913 
0.8292568112193919 
0.3141633063353695 
1.08398281369972 
1.299438409249247 
-0.5567594356774126 
0.6868113361593235 
-0.2394103807379165 
-0.00530525500933742 
-0.5966677418401601 
-0.9169451894240165 
0.1680859209760001 
0.06595657726394458 
-0.1549385340219864 
-0.2005479408114834 
-0.05045333893015294 
0.4808137155721729 
-0.001359444272020935 
-0.4170948241934476 
-0.5425252685771565 
-0.2968221685628746 
-0.1067099465260419 
0.2735009820630412 
-0.5050229263837442 
-0.01247464781328388 
0.5357062780190581 
-1.322811409967279 
0.0906910225405038 
0.6869103462623761 
-0.3844347607677707 
0.2321370414543134 
0.7304910740934297 
1.101330130221691 
-0.8066482881843839 
-0.2876212552811069 
-0.5392408671438751 
2.353622957106217 
0.5895075277297293 
-0.3152861514878768 
-0.4919496418109179 
-1.000964944506099 
-0.1562910844576113 
-0.3601722602846331 
-0.6038185330370301 
-0.6712369007606389 
-0.1568389939790087 
-0.4415156830861703 
-0.2353329475554045 
1.226535046996688 
-0.8038099055133954 
-0.8761496272730585 
-0.3979274390264793 
2.931206961992027 
1.257788085461316 
1.15724577735736 
-1.037701863517584 
-0.5219700050633803 
-0.2708539093825653 
0.7799901969088476 
0.3473114513180517 
0.6990692125689084 
1.406937355128887 
0.8498517852684625 
0.4348924301113943 
-0.1588624076352665 
0.1785032110086621 
-0.6146035721440967 
0.3016671787189939 
0.5367628377504574 
0.4019515881270251 
-0.2044291976390899 
-0.5972788759983645 
0.04063519178572909 
0.1782871702423248 
-0.01763545603095201 
0.1556719250620076 
0.7927781141566487 
-0.2434134846144905 
-0.8247712661706372 
-0.1588218596761526 
-0.5525027369378158 
0.126610775988334 
-0.0823287798870443 
0.2608340824850677 
-0.28229031740678 
-0.263304522033922 
-0.9163591246843643 
-0.09213376508632834 
-0.6100353099659933 
0.1306172813791761 
0.4640353063886791 
0.6882059798013791 
0.8518215817792891 
0.1789463424650973 
1.351384218395038 
1.625434811460057 
-0.190541881017532 
0.6636166940910566 
-0.5298934678174518 
0.1763453359707104 
2.425004484233417 
0.5818417136310999 
0.2539358631009767 
-0.4466120030931017 
0.4822286813133225 
-0.6163883868142215 
0.2327787407376365 
1.153914814604007 
-0.2288356177107254 
-0.4013032018246011 
-0.4063795181318727 
0.06600565218412646 
0.2698958213793197 
0.2287851706214246 
-0.8854245496621458 
-0.7955267952902506 
-0.04195595503561884 
-0.5487958493573145 
-0.190982307804532 
0.3184009024154458 
-1.131784562907142 
0.5772302739198361 
0.7789725012282235 
-0.6684587855403428 
-0.08591024628506649 
-0.2364472623866736 
-0.1200802618099804 
1.080109073958194 
0.3958993025596642 
-0.8690482154035976 
0.1463796963199099 
2.611080870520113 
-0.01317740209216262 
-0.1605075914307492 
0.3828995921929275 
0.7533157042402409 
-0.8703037461837462 
0.3524563498931 
-1.134867241935293 
0.9412199344366161 
0.1676441493022809 
1.21944135753758 
-0.1417466643793616 
0.01473190448875687 
0.7081754004135169 
0.6382303404681869 
0.1852478244844892 
0.1718198097622349 
0.2713614737600096 
0.6486418917900872 
-0.5767687233830714 
-0.4321135453133325 
-0.2808420147193593 
0.3381710098817373 
-0.6428627499241829 
-0.1646939829549612 
-0.1782780654491445 
-0.2178346813684652 
-0.6416004610959916 
2.013621569186047 
0.8061297871162221 
-0.1115774559652548 
0.06487029979357471 
0.753320131782844 
0.1394966958953628 
-0.4718454629679922 
-0.5375981290127091 
0.3605098853726079 
-0.3601748915603567 
0.2919528781425211 
-0.8433042519613526 
0.5420318019307051 
0.2795221327641727 
-0.1151719017061105 
0.5064370746484437 
-0.08953373110073368 
0.3896828362757276 
-0.7388562489301095 
-0.3779666271269468 
0.1799391285561643 
0.4022162501142446 
0.05696258981579279 
0.09328179282595062 
0.2859328591845758 
0.03033532094164258 
0.2044861574063695 
-0.09264472830431625 
0.2684613711469738 
-1.052667301283079 
-0.1068886154558885 
-0.980349297487627 
2.305747336072188 
-0.1549890109522734 
0.06491408210269695 
0.1454641703645487 
-0.2720415171324641 
-0.6219354532112307 
-1.584619269797664 
-0.1750777767725882 
0.9224611535413303 
-0.005018051970686581 
-0.3105516357536438 
-0.3011986703286119 
0.1203407046373036 
-0.09001374802522467 
-0.2061737558482278 
-0.1284781725936344 
-0.09091881934515791 
0.3067443945410047 
-0.3493860187651935 
-0.02596422756800697 
-0.1693450909364624 
-0.2193317755777009 
0.5381884800904523 
-0.5088840546717985 
-1.082063164942949 
-0.2727184362068566 
-0.0680544902432786 
0.8046974962624384 
-0.4166712561072585 
0.7557888596914427 
-0.2482802710181448 
0.2515182710149907 
-0.2674960581191397 
-0.2833668401958339 
0.3579078269792184 
-1.715626060087317 
-0.3656370682031135 
-0.5020403236239509 
0.4658882632725626 
-0.3685326959941321 
-0.02333450997220166 
-0.2467005412443125 
0.03588592307203799 
1.089289642332328 
1.167326756096156 
0.1128846631095738 
1.496407415839472 
-0.2886030377064438 
-0.2015826613139785 
-0.4669180877344627 
0.2791782988521894 
-0.3246181551570557 
0.007479423753878486 
1.344333661299086 
0.2817049936967333 
-0.1445082202797965 
0.261551974703946 
0.02470126609975203 
-0.0139810473324755 
-0.4163197958409611 
-1.100876423977888 
-1.290479876234461 
0.3667887926230365 
1.357338359874836 
0.6243110293351204 
0.5141430625794646 
-0.3870201620429796 
0.1607184676772386 
0.7293799167281879 
-0.3751737246289234 
-0.3831766907155414 
1.223176752778685 
-0.8834792945012276 
1.064420933393564 
-0.7305579851921885 
0.4872913742793508 
0.7162453738711964 
2.917837002934748 
-0.4617792983192076 
-0.01124099583243548 
-0.01039458706049937 
0.6427725875768593 
-0.07914939837347015 
-0.3431140074045539 
0.1271824140387033 
-0.08842347040897285 
0.7888372215014452 
-0.2130883633705278 
0.2489443540947098 
-0.6125578565020737 
1.265859363006005 
-0.5290632313006209 
-0.5986354284757339 
-0.3912023195368752 
-0.08991340096904536 
-0.05260406701642992 
-0.3731858458300322 
0.3089553537112174 
-0.2803784311917071 
0.007283037115170123 
1.368681893253428 
-0.09800791334345174 
0.6473733253951093 
-0.2215735947840811 
0.9441234037379751 
-0.8906414578336592 
0.2501499226675455 
-0.1108151013860926 
0.5029672397936622 
-0.7635949913327209 
0.1107657784623143 
0.6844193009360739 
-0.2432837087249902 
-0.5534360263554089 
0.1568080568712164 
0.5611875221123229 
1.54688336763403 
2.030649500070982 
0.1486994572050731 
-0.05116903821671079 
-1.014569713748859 
-0.5872447377085114 
0.147782505634248 
-0.6933590656798267 
-2.556047445277192 
-0.4283505785015609 
1.166961374085728 
0.07390883703715687 
-0.5159017111841175 
-0.02178563531026803 
-0.7833105667594719 
0.3693616064844623 
-0.8978563571510823 
0.4359534059811333 
0.2232895764499071 
0.2426662314343637 
-0.3305880118152391 
0.6353730465759411 
1.002070162092643 
-0.8500874771096004 
-0.2916355213389263 
-0.1961731467737783 
0.779642314830519 
-0.641963787522267 
0.4100937604162185 
-0.3353844398724522 
0.4045428620461085 
0.2324938269279566 
-0.7643081726886339 
0.01621371361006532 
-0.7296243405575533 
-0.1188763611278478 
-0.2007027026157288 
-0.228468995340016 
0.4296838837547495 
0.4560072766999844 
0.6010710861954172 
0.04376637927677106 
-0.8409866476274516 
-0.4153002792337085 
0.5543103807988072 
0.2256846577404047 
0.6787722138270877 
-0.1050577853664351 
0.3860782839572978 
0.0421127478488467 
-0.05571874843318887 
-0.5362858006117286 
-0.4316852840462259 
-0.1941112290595891 
-0.1202777308877252 
-0.4794490508299375 
-0.1245780786630234 
-0.03395259439780365 
-0.2884747781046901 
-0.5679974714786977 
-2.081671718771213 
0.74567563908623 
-0.3193569406850821 
0.1800384043699474 
0.4698443936745802 
-0.9369946019048631 
0.1424664185054461 
-0.03972282054063281 
-0.3574040453329196 
-0.2320420444474862 
-0.06805818649817055 
-0.5784610752076211 
1.364815140491884 
-0.3142724766270062 
-0.3067337616824398 
0.06158947845269731 
-0.2759664223760814 
0.06418936089694049 
0.4891568731713622 
-0.00550783632009508 
0.5649047393322285 
0.4766128054290241 
0.1086784291897491 
-0.03849261961528649 
-0.03310016794713243 
0.1594637420114098 
0.5290073248022537 
-0.6782266312495049 
1.082814999286669 
0.1646221136759855 
-0.1362085656084143 
-0.07922044807980323 
0.1992818879759476 
0.04620091231715996 
0.105124746877357 
-0.07369727503301333 
1.075613728320407 
0.2329890974500843 
-0.4290138101239226 
0.3103473088717192 
-0.366236106932683 
-0.02195883978766205 
-0.0409757074089052 
1.223645366645896 
-0.2177619822829116 
0.009068801888536865 
-0.02606964469702483 
0.5627179288910865 
2.135324404577187 
0.2930722024160187 
0.2766175900319278 
0.9612516446182309 
-0.1280532728006586 
0.2481633476717733 
-0.3285024502561724 
1.480382142745827 
-0.08198844339196944 
1.145361167728141 
-0.09669841924116297 
0.7736440781868761 
0.399264942912199 
0.2135329769123047 
-0.3366839614221537 
-0.7212715397535611 
0.140875301136848 
-0.02213161287034306 
-1.168366805912651 
0.1472332689076137 
1.13323373677774 
0.460131152130304 
-0.3744366237999838 
-1.985350249387533 
-0.2526251652171115 
-0.07020648421999276 
-0.07715560322615492 
-0.2431355406929914 
-0.2573370465057505 
2.574056766858185 
-0.1343731063985143 
0.6637619702432496 
-0.3913763597702282 
0.2434728134592734 
0.2644588442401606 
-0.5255378128697997 
1.337965415173205 
0.1278434132834234 
0.4354761365035041 
0.6028436537751587 
1.205136961684238 
0.6996727369527289 
0.248862677008944 
-0.7955170857145943 
0.6245208789020362 
-0.473810275863334 
-0.4029108209357287 
-0.6257481961832131 
-0.09486449723516188 
-0.3366306576921333 
-0.01907843262405413 
0.6182305586084538 
-0.3813336579405088 
-0.3207194563397199 
0.2515822969406885 
0.9123780829971605 
-0.5910894290206832 
-1.093036811321954 
0.5553341397329437 
-0.2647152521361968 
-0.5673434787664429 
0.1499299302241302 
-0.4558019637582698 
1.722176222895857 
-0.5501917841266574 
-0.7864775391679869 
0.2023598602579013 
-0.9894994913965025 
-0.1906183069578689 
0.2852307986207501 
-0.4218206159024471 
-0.01685382477862867 
-0.08281225533133049 
-0.3480147505151688 
0.5859845194778531 
-0.4850931065006646 
0.9703938720461712 
0.05295219294038959 
-0.1513029815526225 
0.619280722303631 
-0.1775791738052811 
-0.5542084312975738 
-0.04827015663073719 
-0.697115796611533 
0.1565969872908425 
0.731558870444867 
0.06198043181473758 
-0.6232446366898042 
-0.7604333310510736 
0.08863267049142773 
0.2215874075124658 
-0.659451066898972 
0.3789813533943172 
1.018412329508689 
0.04800735222093427 
0.04095881813870339 
1.233134145008847 
0.5437698788404175 
0.4960668310658537 
-0.2911603653444411 
0.03870530527875662 
1.397994468757951 
1.522073017575391 
1.684291664533111 
0.777899050924836 
-0.1218695843062338 
0.6715834016829538 
-0.1594733386779576 
-0.2158393898566038 
0.3017017061965956 
0.07104045840557015 
-0.3827563632313505 
-0.89855638760958 
0.4116065262389051 
0.1849336492370859 
-0.3554557742323826 
-0.4646796886042984 
-0.1293664616168422 
-0.5246767782835519 
0.07970156195607235 
-0.1862066970245053 
-0.5150713171384304 
-0.4177298850040341 
-0.7594085488412242 
-0.1095147764941736 
-0.2400674926295574 
0.2103050369645155 
0.8510235400163353 
0.1376975120180391 
-0.1329513483715235 
0.2214660001395488 
-0.7654105852967921 
0.2338308444112667 
1.198018596039132 
-0.3108793125350806 
-0.01646463679673757 
-0.01299360952798037 
-0.385431795916561 
-2.045383724336612 
-1.197532210166921 
0.09883590399785898 
0.3901951072834461 
0.4759861445044861 
0.8139175838748123 
0.1908844738910114 
1.233847563077449 
0.2775480524949211 
-0.08390578264149774 
0.7253709268772801 
-0.05862057719517248 
0.6042490151447458 
0.9839481218993155 
-0.5063789090286804 
-0.2927055109895069 
-0.08240012326732934 
-0.1878373891463603 
1.064446142362467 
0.354938991689049 
0.7792484100788977 
-0.3229708349117483 
0.775298444005557 
-0.1829421603645926 
-0.5065777383337704 
0.8935915989959218 
0.1297786120741989 
0.2772665097672079 
0.01240691124752932 
1.147182034144106 
1.041772089999414 
-0.2272873425618885 
0.475344321152327 
0.2073940306062936 
1.341805250756749 
0.6003614076373772 
-0.2927584103899183 
-0.1491205714632684 
-0.23745569108815 
-0.3777197121186819 
1.920342887483206 
-0.3769319896298642 
1.370961609935734 
0.1133156361992019 
-0.3442548016075743 
-0.4932871160732202 
-0.263689169732076 
0.9188353749634089 
1.245609573970907 
0.3723795759938131 
-0.3781975666955824 
0.5286631701164842 
0.2540821142914372 
-0.5069136090692264 
-0.09753907909962481 
-0.2353785479506861 
-0.4585239377703997 
-0.3742279620653024 
-0.0252248679784201 
0.4810371752503607 
0.7144765321397577 
-0.1271592609356664 
0.3409579346684298 
-1.949062203645116 
-0.0881109772125213 
-0.1235462889474727 
-0.5745352173390349 
0.05202151319448055 
-0.1172249792413294 
0.1844625121104639 
-0.4571225525752459 
0.2020034501539522 
-0.2577266580920327 
-0.486396929979567 
-0.2246101803770844 
0.1241923956157217 
-0.4775295510254132 
-2.068981858027702 
1.242009660631759 
-0.7057882065289206 
-0.9588024866305686 
-0.1159492601194841 
1.011758524766736 
-1.030747252851836 
-0.3662463075935614 
0.9608430652520468 
-0.0583345471479233 
0.09005328450874728 
-0.01955587177301316 
0.2625329492642946 
-0.3208230127568547 
-0.6338898470339231 
1.224198186077695 
-0.02687970063689144 
0.6643582541583928 
-0.4239355728209526 
0.3035776657902782 
-0.6091673027099394 
0.5150580314457343 
0.004267203458625454 
0.1265056765960847 
0.1177288396677301 
-0.1779075584180054 
0.3013515593957854 
-0.7311549955730884 
-0.08564840108421763 
-0.8956880257404155 
-0.2924449209546082 
-0.1163310442502048 
-0.584441060059142 
-0.1217474746552931 
-0.1154752041785572 
-0.5274636392670018 
0.1660122184224879 
0.03340384740664952 
0.3700478582292246 
-0.8363903806065149 
0.5260459912922915 
-0.7255640159641115 
0.03700481565980992 
-0.2683756839584274 
-0.4406659784908598 
-0.09032373367924328 
0.2250051926199006 
0.2745353394210535 
-0.74866229408445 
-0.3351045607629665 
-0.3313765792275041 
-0.2821609370502053 
-1.098103081813847 
-0.284953087590587 
-0.0003877218591669829 
-0.1178286002426945 
0.02887095883876441 
0.4845609305370479 
-0.6091663704406658 
-0.1063399866250793 
-0.558108733435777 
0.6782231587065856 
0.2458834443794693 
0.4220660178637688 
0.1849900819453028 
-0.001004958647231269 
0.2083477866574062 
-0.6427780875476107 
0.1971581112964786 
0.4836444521160358 
0.02445219311854165 
-0.1735972094870751 
1.283928063727393 
-0.5155165059041664 
-0.4869446668045625 
-0.5632327905308643 
1.028925809033433 
-1.81532372881167 
-1.183449275496749 
-0.4410854413179613 
0.1629150332952641 
0.09951581490147704 
0.7433594808457714 
0.293483187802418 
0.6945945261802239 
-0.01738447990636765 
0.8218182035509697 
2.123598174142965 
-0.4439328055358985 
-0.2846016923032972 
1.443029702347792 
-0.3458103441213273 
-0.7044063186668423 
-1.224393115461607 
-0.9998093652879395 
0.9852215322574378 
-0.3049169577441393 
0.06521075330300846 
-0.679733614284645 
-0.5515754859057904 
1.701077389289424 
-0.5993909591277732 
0.08545717791620656 
-0.1595118642667372 
1.199342886304479 
-0.3863872662608965 
0.5771816125289928 
0.6049677813385312 
-0.5459639086976983 
0.8697286910203146 
0.4435878716613077 
0.3326973153542185 
-0.55918545204203 
-0.09641170245823322 
0.793900795351753 
0.03494366813930871 
0.3822943713511281 
-0.2786198198382657 
1.880181943127422 
-0.3890472046390462 
0.338636777964287 
0.2001179664703661 
0.4484866973760961 
0.8811597039116451 
1.044186812720846 
-0.08721705264257013 
0.4381001848811135 
0.0973074789298604 
-0.08344056905285446 
-0.6634559953021496 
-0.2839840469827237 
-0.2494250941526946 
0.147790227550562 
-0.3338153919824547 
1.291867327936864 
0.2717364134833904 
-1.250540489730362 
-0.09996605374689449 
2.471547574116221 
-0.9143303632697191 
-1.098108242564692 
-0.1832148026691024 
0.02612284946210265 
-0.7434529664057816 
0.3310632092408509 
-0.07536578937119591 
0.1117492615004653 
-0.7810521431512081 
1.148522285118862 
-0.3216990814996468 
0.2779006578104929 
-0.1376432998280964 
-0.4237096364199206 
-0.3187899587583387 
0.2466134302487191 
-0.3636796590531931 
-0.2387651559093394 
1.371144575009887 
-0.238471813600407 
-0.08102096809000425 
-0.1330063905508845 
1.34727291884502 
-0.0562230066291708 
-0.02164205976591426 
-0.02605505033303615 
-0.4187063861004394 
0.3759729659406399 
-0.113764812820555 
-0.1522611486669756 
-0.05523378284855228 
-0.0620261934106313 
-1.586167764817476 
-0.3915907616009062 
0.2013444702692241 
-0.7074970851612824 
-0.2236522582404744 
0.0643861046631248 
-0.1333491992978588 
0.3085579280066441 
1.511756130500524 
-0.05602496004166931 
-0.6022855163438607 
0.3455121240461238 
-0.7342798291802242 
-0.2027161255015084 
-0.04331157444549537 
0.4799109303123607 
1.455341474711971 
-0.2137818421713448 
0.08072446026860028 
-0.3628058450683634 
-1.236584805425214 
0.01199884116513968 
0.7539053367871512 
0.1562787865346562 
-0.1609468271140514 
-0.02955377046720179 
1.201631193674827 
-1.568673487680013 
1.477336066100431 
-0.08811423323336627 
-0.5707369301330563 
0.1431889050417575 
-0.06461965458531081 
-0.5864345553950646 
-0.3731957425186909 
0.3916823694186598 
0.7688765127211717 
-0.6995143293506815 
-0.1764622938968844 
-0.008287354831766161 
0.009725633752114365 
-0.7678514369017544 
-0.07323079760762341 
-0.4356830772065453 
-0.5942569770531321 
-1.149041154314613 
0.09936870265245046 
0.02959443727265187 
0.1502893704432519 
0.6451197114133042 
1.080749808278082 
-0.4914832411218901 
-0.01983285460448591 
0.03281815568619088 
-0.0005079580110018758 
-0.7745391860569063 
-0.8407087502569655 
0.5064048276548726 
0.7117998453993988 
0.9124483353552983 
-0.7945931426452363 
1.469274922310888 
-1.015251236502281 
-0.1103705556923554 
-0.3624722162532331 
-0.3801166962827993 
-0.6736860268815728 
0.1344565331004265 
-0.174505999132756 
0.06254862121871127 
-0.7652047769793563 
1.274855768885602 
0.5948542258748107 
-0.1128282945388576 
-0.06620904549197619 
-0.222568627075899 
0.3120143954240976 
0.8582614143914545 
-0.1817259876271374 
1.546165437131118 
-0.07312418698537054 
0.372806229716113 
-0.1113212709707444 
0.5024684679548146 
-0.9100690911923975 
-0.05802416242780008 
-0.306141823449738 
0.9706069448436359 
0.7496582117691157 
0.02930593593710254 
1.708018313846784 
-0.2692293373406001 
-0.1140170108385716 
-0.2539838271468789 
0.2732986261429948 
-0.1140041398596518 
0.1092573899813451 
-0.4262521532787623 
1.425561723859066 
-0.5618755999145455 
0.2925212772841732 
0.1335790675386391 
1.13530548375303 
-0.2687903930949702 
-0.7246282229134592 
-0.3053814218650884 
-0.4214449692858839 
-0.5338468474744225 
-0.3179314989653139 
0.1367081256776772 
-0.2584079056656518 
1.555907512688158 
1.1284035929922 
-0.3063395796644532 
-0.466391897147343 
-0.2347270475017502 
-0.09336551447157874 
-0.7383288429740694 
-0.1217992019801638 
-0.02488488339621392 
-0.5064672914501874 
0.8017501456902404 
-0.09810376140501426 
-0.3221646727501742 
-0.4388000421552383 
0.3674085430004982 
0.07594854535066349 
-0.4458111950158101 
-0.8174698877139592 
-0.5418217566040959 
0.2249636123367762 
0.5444926511764165 
-0.4551010700055185 
0.2578809650186985 
-0.8299557047476815 
0.3508246529902228 
0.3710251568161155 
0.7962246705709736 
-0.7088835629945004 
-0.2612093900551289 
0.6543418011065005 
0.4780684151728076 
0.07164502704785182 
0.3275783222387168 
-0.5101901866770868 
-0.2136443875129358 
0.04875044270147548 
-0.1479984878025557 
0.1728257355682437 
-0.1202121595493019 
-0.1502014361008322 
-1.067708730552247 
0.3770952707880775 
0.5113803718942295 
0.1319895802312354 
-0.6744644551187678 
-0.4686241408102942 
-0.1020247127072098 
1.336457590571965 
-0.6918784898359078 
-0.2395665240114694 
-0.4263245054263893 
0.1598120983839477 
0.4800497303180482 
-0.2151549331002527 
-0.5041401248235056 
0.9936955618337082 
-0.5481722013735472 
-0.3002434744983868 
-0.1191606776442254 
-0.6398326614844491 
-0.307034210141808 
1.507713451808449 
-0.2285858839131633 
0.9159138277785696 
-0.2163367113555401 
0.4625018652162788 
-0.009513453988419747 
-0.06079850629723439 
-0.2926209614348524 
0.5020379549935481 
1.086733211850638 
0.698509518320739 
-0.1683179380834594 
-0.05333950449546691 
0.01344490508625924 
-0.04365657568882028 
0.006937369796747993 
0.005907122582570448 
0.1985232115470982 
-0.8006929243241624 
0.1060715024061436 
-0.5730671305452417 
-0.380364839186429 
-0.06115384722128261 
-0.336844040868502 
-0.2281168075151535 
-0.4713443097206798 
0.3669506230397901 
0.113010273950523 
-0.06265794424894849 
0.4434582517435064 
0.02528451339821653 
-0.4577813795040944 
1.066944320797739 
0.01402531768497471 
0.9430681991034562 
0.06484682053776748 
-0.1081162533502055 
-0.3058333495254604 
-0.4314471740965194 
-0.6394213950964137 
-0.4734154939891932 
1.457941419474172 
-0.4953321667938074 
0.09908856348161825 
0.4979303030118152 
-1.089257853750821 
0.08899210594072728 
2.145332194605806 
-0.04294527960988487 
-0.1777781381897741 
0.04745387564006075 
-0.1047908793313505 
0.06739813871124532 
0.6546335879582625 
-1.432699680101852 
-0.01080175387811235 
-0.7056822586179012 
-0.110224931379626 
0.0655435481346219 
0.8242153130202188 
0.5996782102163096 
0.05756857916103503 
0.7612114169859711 
1.160322623610128 
-0.3018953102909666 
-0.03519606362971618 
0.3577928742232497 
0.3263912355304683 
-0.8509159754116562 
-0.1579453165195294 
1.877036155554191 
-0.6511337258772416 
-0.05758383902190304 
0.05907036663277321 
1.02533920724953 
0.3402846269467296 
0.1692599391268374 
-0.6014345395119712 
0.8479337789668322 
-1.245771006574852 
-0.341717929378843 
0.3358843217837623 
-1.834846048844185 
-0.645059765443513 
0.1276186483794265 
-0.1295822810633017 
0.9776289454541885 
1.292381129401849 
1.469424167006329 
0.1154539230149067 
-0.08287363270506536 
-0.4072787555108119 
0.2010492456453755 
-0.4434614871687198 
-0.2523227093223279 
0.4262602438861493 
-0.3452921844714653 
0.5265555176095719 
1.048937865912736 
0.3234711536624056 
-0.4077696841958093 
0.2218328833016178 
-0.1714068668248613 
-0.369593131351228 
0.08527379092949787 
-0.02429772381795434 
-0.1088693216955857 
0.538647107866732 
-0.8596220476627561 
0.2918718990024718 
-1.163587774127195 
-0.1240845534924959 
-0.07069023926144617 
-1.093933511429792 
0.9492442050592604 
-0.4291044770821133 
-0.9004328527369838 
0.1483330055329193 
1.107353497014813 
0.4057781178315868 
0.1042374986906275 
0.159591753451277 
-0.2969539904904821 
-0.8725882610531044 
0.1981510403905102 
-0.9669269268071956 
0.2698318525712053 
-0.3103140350431406 
-0.07964512242734618 
0.07686009138395096 
0.4340381423797361 
-0.08896344285885649 
0.1006263727299672 
-0.57336771968129 
0.3587038538364447 
0.281357021137019 
0.2572459472982569 
0.4140054270542218 
-0.4308144424733981 
0.06338001844132907 
-0.2586606847584404 
-0.05303964328534682 
-0.1626291272471055 
0.1588374821071779 
-0.9028623435302043 
0.6172745867485004 
0.421924393653675 
-0.8918330792765793 
0.1372315895458498 
0.1597986033457164 
0.8141915573288452 
0.1365808513202366 
-1.371087782404566 
0.06938582465801392 
-0.2538779508653722 
0.6808853945063982 
0.5611815797185788 
-0.1627936341595438 
0.3603627670099636 
-0.002005019031169814 
0.217092905452452 
0.3963244411175116 
-0.5608001884249308 
-0.3037934057558541 
0.2316492821937309 
-0.0131285767937311 
0.2440971357326651 
-1.070981236530785 
-0.5817989097734335 
-0.05998396429378143 
-0.1998792433634325 
0.3461988902008678 
-0.7104433534376896 
0.02462564462895246 
0.3479838050118204 
0.01317371137826267 
0.2160684331109034 
0.02128027762407454 
0.339990530567179 
-0.3772557570371062 
-0.4536529850439564 
-1.481831321847957 
-0.03880037957083454 
0.03168564917089868 
-0.03682475525183891 
0.5553953456772547 
-0.01845636241286984 
0.07080351503589613 
0.1063917018267616 
-0.3717570089763136 
0.6203450049770165 
0.1187038795464717 
-0.06627531687476779 
0.4395576950967022 
0.7783287050454065 
0.2916973061729967 
-0.4486305365742845 
-0.0115222926313998 
-0.1788078667378381 
0.08783130618517182 
-0.4164335611380484 
0.5042628698238467 
-0.09697965365109826 
-0.5456518662606143 
-0.2443689744088386 
0.6228511368929869 
-0.1023695804031179 
-0.7076055225472599 
1.119914830730109 
0.4296451349120295 
-1.978224902234294 
0.9311700604702747 
1.440724986353672 
-0.07682490061877649 
-0.3746322400537119 
0.6931046005960303 
-0.5820611819737851 
-1.010065134515412 
0.4875537270061955 
0.1799843388819642 
2.520263756318256 
-0.5661449141420701 
-1.260847395863518 
-0.03659737687042371 
-0.1751435544695956 
-0.7403128449040124 
-0.2207814161255831 
0.4709045591710699 
-0.8311321346296098 
-0.2722906386220876 
-0.7587438030290053 
0.03058810082420182 
1.49128392448675 
-0.09137652147565832 
0.001426105721489379 
-0.9369468720341313 
-0.3110143006401706 
0.3170152371443363 
-0.3345436481461557 
-0.07398305685287185 
0.0176765257151465 
0.03626817673808691 
-0.1254660028153438 
0.5446620788073435 
1.243997325494749 
0.1832602597175736 
-0.6870176991302396 
-0.8492794659783642 
0.8960956270294295 
0.4981398356336686 
-0.9721971707171981 
-0.627066219094967 
-0.09500856388010334 
0.4207988102802168 
0.02040200921390265 
0.2025221345737538 
0.9659727384163883 
0.2405565937176493 
0.3778259958551591 
-0.4309989121271883 
-0.5482291797002763 
-0.3986753697187728 
-1.078254935460957 
1.049242291421022 
-0.7131144880664539 
-0.2059134054057706 
0.1446954690516004 
0.2498134344731076 
-0.6690977304815814 
0.6586064640036675 
-0.5452679176361089 
0.008636197673835388 
-0.1105060932404898 
-0.3024261813756073 
0.0006867560868954146 
0.03997961416731231 
-0.1694916297079059 
-0.02985570359432787 
0.03396508943068204 
-0.8611762633410447 
-0.03233707850003135 
-0.4869030529293722 
-0.01430438459568422 
-0.123137048991325 
1.052094482040513 
-0.1686061490025881 
0.5581230963197519 
-0.6963960149143559 
0.8513876135963266 
-0.009115014685395505 
0.1668634863234503 
-0.5295701540183368 
0.9108369812262511 
0.05859178763100529 
0.2217733079675558 
-0.5370970699176965 
0.6287786228019081 
-0.2034630415062431 
-0.2009536773866487 
-0.4160329394499266 
-0.1787029244758081 
-0.2426049289851069 
-0.8938407422319281 
0.3792990633739736 
0.484016229134041 
1.573711591972581 
-0.06253679430890573 
0.5398633641512282 
0.07048233423422445 
0.0004385652811556527 
-0.3870345562195621 
0.8402928398218417 
-0.1118295224224764 
-0.6922077510405782 
-0.007495564206858554 
0.8947424290850869 
-0.4636366713578103 
0.819173379741412 
0.5145147923588484 
-0.3267175083161018 
0.6118533161963109 
-0.3616819519905802 
0.7948109407636426 
-0.3425302427791274 
-0.4597051404777887 
0.7228226674884454 
-1.230594031814927 
-0.4152624395932568 
0.05645536232110146 
1.528635775549515 
-0.3134385357040226 
0.1172804521655866 
0.2718614943431227 
-0.03470355833148948 
0.1672398676590503 
-0.05256111939819275 
0.1030879458804158 
0.2604813109800874 
-0.3896609934815712 
-0.6262379737640694 
0.2213956709061911 
-0.6460777861698878 
-1.250201170826887 
0.2443027880004678 
0.2108928887919038 
0.497319926313871 
0.9769586435043036 
-0.01327928539688906 
-0.7084258135959111 
-0.5854284132455763 
0.5086059760757097 
-0.6776615409768019 
-0.8107430428491162 
-0.3278999203642466 
-0.1440126081816648 
0.01411519962013356 
0.5921559173039663 
-0.07986584853824001 
-0.04638139474617702 
-0.489264737006039 
0.3349899172909698 
-0.5218919990771693 
-0.6480967378149797 
0.2173246428656995 
0.3578983304611825 
0.1339262619519422 
-0.4297893759401312 
-0.02845629585224611 
-0.2258632701040004 
0.007343069366021738 
0.6501048365806181 
-0.5565923547988827 
-0.539531088426116 
-0.789463881995669 
-0.05240338205699226 
-1.033373264791032 
0.12638852077401 
0.2047969466973934 
0.7583191956115478 
-0.4135046548238664 
0.09055050849306413 
-0.3714695327914789 
0.2975949229304475 
-0.4362254509046878 
-0.3703609898367844 
1.769234224415882 
0.2158448777191099 
-0.1609755089363227 
1.861095387163609 
-0.360700434770813 
0.9202310427348493 
-1.151142349491486 
-0.354902493495924 
-1.413388685607961 
1.041132876203812 
0.1583126710419682 
-0.4785090435320173 
0.2974857675101151 
-0.09357813562605358 
-1.252185092050199 
0.6156800762467763 
-0.3561758259685393 
-4.272809233421212e-06 
1.07137960532515 
0.3034364468742913 
-0.871709705589555 
1.328023697663323 
-0.09629067293019766 
0.7175140204843509 
-0.2696603899528978 
0.271179324970039 
0.2751276237522589 
0.01516807347335545 
0.09459483508201694 
-0.5938088880605682 
1.11479630510156 
-0.1433775694451172 
-0.1302505866575826 
-0.3445466894709365 
-0.1919091115633319 
0.7460758949362587 
-0.2469875826085577 
-0.07165683009644537 
-1.145540475337241 
0.4367466526301019 
-0.274241307858371 
0.3099709183610236 
-0.5470142431125126 
-0.6121145515805523 
0.7736616581809805 
0.09375537309034508 
0.9802026320414563 
-0.4115534677247735 
0.1870193835294449 
0.2431415988969317 
-0.3185147556116629 
-0.05534052083396625 
-0.1608734706376524 
-0.4232252323536431 
-0.4091039097890386 
-0.6730186724399252 
-0.176483137995994 
-0.2363222685172225 
0.02466950391668772 
0.366304794248034 
-0.2506569559037612 
1.611862204315691 
-0.2272927091814634 
0.2508212479336516 
-1.0679277686935 
0.4019728464260406 
-0.34646435292051 
1.032690522675987 
-0.01005030787352564 
-0.279715460716176 
-0.08663999222965821 
-0.3428605464819628 
-0.1162829449981222 
-0.1649148543655444 
0.05998596669791103 
0.150904979570575 
0.1212926744570833 
-1.177504066660116 
0.1034895934694092 
-0.302686055654943 
-0.0172111298182653 
0.2172934902093127 
-0.4611099891982816 
-0.4949070315853294 
-1.31256110557614 
-0.3592489102437649 
-0.2208320003999672 
0.1499611597905872 
0.4340653547286036 
0.146376871099354 
-0.04132043410452255 
-0.217705300908914 
1.11937263025859 
0.04897571954439583 
0.02056702134768188 
0.3039729543401218 
0.5079622608024573 
0.042121138813498 
0.3747553138346599 
1.145363987537806 
0.1516757076918791 
-0.3146165785430853 
0.5555473859097055 
0.09441143775848898 
1.055338660203033 
-0.02277417429418978 
0.3039613261096896 
-0.3894987212227141 
1.065165933886853 
-0.009987544687903799 
0.3316660852105405 
1.384083109272741 
-0.2248646977218073 
-0.5403171856706208 
0.3558186801641391 
-0.5860216762355895 
0.00774385080991319 
0.6268801509722207 
0.1740117504402518 
0.07522378454256205 
-0.6828313184252754 
-0.07635195555570148 
1.046116320108018 
-1.644867603758298 
-0.1800508734295077 
0.4606532526910313 
-0.4457060865919024 
-0.1085111383909304 
-0.005594440854815409 
-0.06575038522774929 
1.699403122574395 
1.003333562482321 
-0.4919080876690113 
0.2830636023106876 
0.6259106652041007 
-0.2843017355926963 
0.5261624849645173 
0.8387622857697059 
0.6024396527686571 
-0.01516164278735552 
-0.1995455382545516 
0.172336253248644 
-0.06952266488664544 
-0.4569276048967715 
-0.02700833455298741 
1.188827939600623 
0.3666687360731581 
0.4690229392111167 
0.2294964945185309 
-0.8383290476069382 
0.6324404324250421 
-0.02778727318184282 
0.656473295860646 
0.7531578255321512 
-0.9376285310844046 
0.1837782976128786 
-0.1584470040037362 
-0.7124239342870167 
-0.4106403770668675 
-0.106899796224965 
1.17334335773798 
-0.2823248848392974 
0.3992760901687529 
-0.1256792884932598 
0.1401444003446932 
-0.1933993990398952 
0.2975558622550409 
-0.3474727681578986 
-0.5903920059724944 
0.4103847309353268 
0.3375933308714372 
-0.3392722507052767 
-0.6604204677013106 
0.09753540993653424 
-0.09324921172507344 
0.7785408733509744 
0.2336183293128118 
-0.2063810411531811 
0.3838481137556494 
0.1993747680104491 
-1.143696726203721 
0.1257576668391387 
-0.3686746354348285 
0.4449542522886386 
0.4971062453427952 
-0.5024592393930503 
0.2358421263098403 
-0.7779467134917925 
-0.4793885693688518 
0.5512577349115615 
0.06432044191604294 
-0.190492219470062 
0.3055442265206118 
0.08700237840834758 
0.09659321195754454 
0.1269638567929215 
0.2684800214412565 
1.216586532896766 
-0.1956353642349941 
-0.7513940431359564 
-1.238325906727662 
0.331488261165827 
-0.09326785562266332 
0.01107146975258964 
-0.3436168541455105 
-0.3467840988100713 
0.6554479753703943 
-0.07564701152624451 
-0.309885619535619 
-0.01555611440036336 
-0.562202524389021 
-0.5154440380099645 
-0.3612749930176742 
0.1947980066807557 
0.1918838599803613 
-0.4745778646918029 
-0.6237765868393512 
-0.3275521631061396 
-0.9422382578089527 
0.9474463331379529 
0.5922650648524714 
-0.09669363435137174 
-0.347406528026457 
0.08769939338140301 
-0.624792035154709 
-0.05778850603172427 
-0.1165009661592988 
0.4396894334006254 
0.6221128727480615 
0.2638745289752799 
-0.1720465914032739 
0.1954701059226354 
-0.2166621615868227 
-0.007042910344209842 
-0.3238399211490758 
-0.9483532552192235 
-0.4742378710032024 
-0.1556386753949267 
0.5960598082097344 
-0.7729126733334684 
0.2687509840204018 
-0.1965031508371878 
-0.2949626042279544 
1.107412907712024 
-0.1348831951355028 
0.2897052045913426 
0.008186991857034623 
-1.713662716986221 
-0.2752909792897552 
-0.6479080636664328 
-0.367352750952697 
-0.9731323831760669 
-0.2479160683068903 
-0.02726089739563629 
0.7204339986526245 
-0.2332121265844974 
-0.6848689281760745 
1.709775539286322 
0.3407243441077181 
-0.2749880930936012 
0.0744418205060475 
-0.7293954377438221 
0.01623230307202455 
-0.1146338497446371 
-0.3797150590552274 
-0.09977733870433732 
1.143254513404899 
0.09211364574036564 
-0.3912560621512526 
-0.1463974496586776 
-0.2561725470751158 
0.722303106496802 
0.7935359070163264 
-0.08647085580707559 
0.6876366555738539 
0.1540744638888199 
0.2913404592922364 
0.2601418864866474 
1.407087564413466 
-0.1247975808878684 
1.486570624192559 
-0.481846760337032 
0.07901611032548653 
-0.0482308354731982 
-0.07914538606292358 
-1.772929297295704 
0.006617950740491541 
0.506287342592967 
-0.05033097600097347 
0.6332301831354703 
-0.2605815906473052 
0.09534555274607801 
-0.1369395038366064 
-0.7774092239734689 
0.008313820826486032 
0.1110873811585539 
-0.2748478884591403 
-0.3040463973618694 
-0.09622197002740704 
-0.2505116152185892 
0.3883543686706821 
-0.05073794036030291 
0.1833082848182382 
0.2882512152898454 
-0.1632636293401363 
0.7335705746682356 
-0.7732021490527489 
0.05770607505768038 
-0.276074951298223 
0.4651661013775072 
-0.3130955264203252 
-0.2661450659100089 
-0.03373040449813004 
0.8091783848833111 
-0.09602289131341077 
0.3078205834279401 
-0.1465629653212491 
0.5273794840747033 
0.273396445177261 
0.03950259157330407 
0.2105015933802366 
-0.6803561528834674 
0.4168233446708057 
0.2877533004176523 
0.1074775626402067 
-0.2068734849046678 
0.14555718302572 
1.076684268785953 
0.1808529669547201 
-0.4415678799609659 
0.2137719904460108 
0.3501322729115789 
-0.03486689791902666 
0.2037300705870532 
-0.01982887873393304 
0.2904371183662345 
1.031747509630644 
-0.6688506789025553 
-0.1045093966463722 
-0.2075297985852271 
-0.0474743600373491 
0.05764600980738707 
0.06931503950038946 
0.3624723029288844 
0.1389078507941658 
0.1633841347090255 
0.4215827970070413 
0.03383183287749135 
-0.4727603068489379 
-0.2027675802602549 
0.3159349799087789 
0.6549716626617071 
-0.1808229081703629 
0.6719320592910588 
-0.4310678448346467 
-0.3717691228678481 
-0.3511514810718235 
-1.540135953318802 
-0.1421875892528814 
-0.01792352785496779 
1.138194790957924 
-0.5367489737685772 
0.5502546062582736 
0.9785539118941032 
0.1857397986053509 
0.2445458883818593 
0.0008459340686873887 
-0.2656953870910144 
0.3477833267610614 
0.2108048889413073 
0.2479895149047581 
0.2401592171127373 
-0.2959687011795848 
0.06560082640620604 
0.1378990849010424 
0.1318165264504917 
0.9014106967964933 
0.4696323574032794 
-0.3231227139779498 
-0.1614934003002249 
1.032037473061495 
0.57599858044945 
0.05872344292997271 
0.2563272372897683 
-0.2225041471969599 
0.2039062054928613 
-0.2934735738082747 
0.847593242674171 
-0.7288255237569921 
0.002231591346513684 
-0.4963504165877606 
0.06252045563084001 
0.2398570633537163 
0.7491923594043214 
0.2960031367143079 
0.249009577949889 
0.8755077776924791 
-0.01014418846705509 
-0.3061088435262578 
0.7384169191938817 
-0.08039812984523298 
0.02051357958758267 
0.07374020969607556 
0.06353294510519279 
0.5593140937755706 
-0.1764867381647937 
0.636834932865364 
0.1498915637379596 
-1.030884106814538 
0.2550486332423304 
0.7550458024450707 
-0.9577088030205152 
-0.1047541748710938 
-0.5796567971107229 
0.4370349319301768 
1.025091809110038 
-0.4281858603403512 
1.455067869416893 
-0.3378321659210877 
0.7663934293410888 
0.4970320952725452 
-0.7303179470326241 
-1.783251090545702 
0.4447450619875835 
-0.1760109347889989 
-0.1748344682503359 
-0.769513260268649 
-0.4536778492923381 
1.140240492175705 
0.2377603109863685 
-0.2952894919614544 
0.1860575347855261 
-0.1561053208947141 
-0.3115447578163181 
0.8809114624805185 
1.246825312301251 
-0.6232186395416572 
-0.6251332557557192 
-0.03650211879405033 
0.4750483933787571 
0.1877372995520207 
-0.1283702589213707 
0.03487570395146928 
-0.01788560229724141 
0.7421346136087852 
0.1824250693580392 
0.1405910664155631 
-0.5186699644671807 
-0.04179972890939981 
-0.652916295577285 
-0.4090220942517342 
-0.6525521830482485 
1.301978378618824 
0.1120396631961477 
-0.7329316730709363 
0.3626782784865084 
-0.6269417203074543 
-0.0185015889761172 
-0.6442493542256503 
1.041996003893048 
0.005990491082752585 
0.2961555368497205 
-0.8422005172371041 
-0.2320176795156985 
1.155677766138336 
-0.07182328354210242 
-0.1903891953347618 
-0.5319784203728227 
-0.1408774438303286 
1.521003210236811 
-0.6321776807986423 
0.4056386050497005 
0.09250117419186769 
0.1997571136073457 
0.3142407735943409 
0.2822744832851284 
-0.1609991493716045 
-1.7677961360764 
0.8727373208300742 
-2.173126705477756 
-0.7036467413300203 
-0.6280846322960384 
0.5510352143144865 
0.4108708066953894 
0.1249729599820651 
-1.131753841955883 
0.8090244328579932 
-0.03607778187020541 
1.946588478325523 
0.3891013309941947 
0.3626931579263912 
0.2845623038260195 
-0.0734020916683691 
0.2172496243319975 
0.4606427636376683 
-0.08702207620578017 
0.2231946043731058 
0.1204681136901891 
0.9850974579155893 
0.4118713959004816 
0.3017948297475473 
0.6496113323289223 
-0.5135754892358977 
0.02940013186832993 
0.9875360234484676 
-1.090646458519477 
0.03530740171294938 
0.6074219526374844 
-0.9276022637322577 
0.0490021349084316 
0.9397732026911469 
-1.000018261231262 
0.89379826206149 
-0.3056939868989738 
0.8767998147854414 
-0.153488479367664 
0.8467849530575745 
-0.5602301727066884 
0.04611589343210626 
-0.2810975762404147 
-0.5755119957652433 
0.4405267455478883 
-0.6337827342900617 
-0.07347410715747853 
0.1182405025237522 
-0.1415016726469701 
-0.04176093858266425 
-0.05254939457441385 
-1.164916743640535 
-1.380520375113725 
0.3246779607770572 
-0.03193876238046037 
-0.134348447582375 
-0.3597688964019945 
1.951661829013679 
-0.5167902659554158 
0.81745428190263 
-0.5007254564812891 
0.5213083335125346 
-0.2839649870386606 
0.1527691835758619 
-0.4040659340851791 
0.1410106044491277 
-0.7724319149028799 
0.7763534629252272 
0.6404800447728514 
0.4377772748971711 
0.1605170927762113 
-0.1204645566030095 
0.2184469922583394 
0.6545217299088326 
-0.0658413416129234 
-0.5765015766997229 
-0.6304603279671169 
0.7071770040306037 
0.04314456375867089 
-0.5150496936689536 
-0.03934386034096986 
0.2091982713720745 
0.216138463414517 
1.031652580806614 
-0.3731991804652068 
-0.3143031835407281 
-0.06440798562060447 
0.789550457994457 
-0.02486067337896208 
0.2511910470037669 
0.6602324501385362 
0.1968730875406389 
-0.294138412776778 
-2.159031683125856 
-0.0004890394026490323 
-0.549541313407603 
-0.2292886060685728 
0.0407402437373767 
-0.3059995141340096 
-0.01171775824364491 
-0.4283088687478844 
-0.4154014278402169 
0.2606744435923116 
1.265277315861853 
1.661252878781309 
0.1557688942454249 
-0.6143543854919201 
0.4706551622830463 
-0.05139268791943795 
0.4744364380892354 
-1.140874315136967 
-1.019518347675011 
-0.293730844405661 
-0.2904806848648316 
-0.1992426274972929 
-0.158905259627702 
0.8344748333377725 
0.140338732050585 
0.7628569519216332 
-0.8131543703892096 
-0.07486738893587233 
0.8610978029857758 
0.231250472214621 
-0.1164002086460539 
0.1566056323954935 
-0.2209512231065076 
0.6724910600237195 
0.6183938478367509 
0.771446753423064 
-0.6262723703478005 
-0.8987457385278858 
0.0114347472397419 
-0.3076994931162339 
-0.1638618792494658 
-0.9012086238676289 
0.5498098670924942 
-0.1132756665823391 
-0.6400234463172146 
-1.327493333175284 
0.7597619013517859 
-0.1717433869619708 
-1.334980303064455 
-0.08777356370210088 
-0.7500657204435539 
0.7517530578803246 
0.001763247979849011 
-0.103749503139653 
-0.7024469683697045 
0.02212820770610201 
-0.2275552846233463 
0.3774457659200486 
1.13869456067523 
-0.5918651056615135 
0.2233596906613384 
-0.7811764278117531 
-0.03851939224164124 
-0.715940297674909 
0.2032161571404863 
-0.233590976538449 
-0.4123980400856188 
-0.2900618815785001 
-0.3442774941313882 
-0.2561758009795262 
0.1395244835535937 
-1.461686387208302 
-0.232758655233826 
-0.6007820194589366 
0.007856765582280358 
-0.2961293562270528 
-0.280712511926572 
-0.48941229830569 
1.098282693475506 
0.8040955012631429 
-0.6385377665032582 
0.2044022967557605 
-1.143623916689654 
0.01440420406669209 
0.6304857627766544 
-0.1822526332317528 
-0.8580563322213413 
0.3354149258071486 
-0.3539155518807214 
-0.01724111738032703 
0.3037529135819404 
-0.2402705016567106 
0.5778889254761409 
-0.44843809596635 
0.01233498515022762 
-0.3278023058442714 
0.009268842741971355 
0.1558640933333826 
-0.8488508604468763 
-0.06905975830509453 
0.4407770710408237 
0.02334453277869144 
0.5209027501709411 
-0.04918928586020518 
-0.2480846431924288 
0.5005889631956817 
0.7953232381395499 
0.2780092815876135 
-1.38822382234517 
0.6581869609719273 
0.1226226658287941 
0.3389272462897034 
-0.6825112942297047 
-0.04306909338711392 
0.09715380035390468 
0.6573206766632349 
-0.0189351298714813 
-0.02096151421200382 
0.07729562338743591 
0.6503114260426116 
0.9482993104628243 
-0.2055036052275272 
-0.08867163003053989 
-0.1197972902075244 
0.3144627333854355 
-0.2114263431463994 
-0.1785627234794248 
-0.334382172344066 
-0.2863729508269161 
-0.5410889900793854 
-0.002595987724139871 
-0.0611697859960482 
-0.06302684395516961 
0.7089892020058083 
1.045993439219887 
0.7354525179870934 
-0.3890525664885671 
-0.1551529583281709 
-0.1015072074806584 
-0.112407331114397 
0.654535168935591 
0.3824518282474855 
0.4192003550584396 
1.896886479781059 
0.1620256837205829 
0.9522479650007901 
1.25465172575844 
-0.02075907460903052 
-0.1166255240357702 
-0.5906066209989146 
-0.000245102569793057 
1.409490413325103 
-0.0254328976076861 
-0.1305428409817428 
-0.1201403578029932 
0.5749805028612683 
0.5086970034177873 
-0.5893991531468863 
1.221349505334854 
0.1052213892260392 
0.2911673441239263 
0.6569707154005168 
0.3155883891470888 
0.2303991038334412 
-0.06128890433264582 
0.2196861921042468 
0.3356095061649457 
-0.06282071874609199 
0.7846443614504297 
-0.08184186388164766 
0.6721234066581202 
0.05069070599749659 
0.7673654938109126 
-0.3047603314271891 
-0.4002998760465561 
